0,0,0,0
1,0.5681,669,2
0,-0.0873999999999999,629,0
-1,-0.958,627,1
-2,-1.6211,622,2
-3,-2.3034,581,1
-4,-2.698,580,0
-5,-3.5025,578,0
-6,-3.9711,555,0
-7,-4.4379,504,1
-8,-5.2581,493,0
-9,-5.6631,468,2
-10,-5.9425,463,1
-11,-6.8518,461,1
-12,-7.6618,437,2
-13,-8.0797,384,1
-14,-8.6805,382,3
-15,-9.3343,377,3
-16,-9.6008,223,0
-17,-10.1851,202,1
-18,-10.59,178,5
-19,-11.2505,158,1
-20,-11.7045,136,0
-21,-12.6446,135,1
-22,-13.4087,101,4
-23,-13.7825,55,0
-24,-14.19,54,3
-25,-14.9124,51,0
-26,-15.6707,28,1
-27,-16.1774,14,1
-28,-16.9672,2,5
-29,-17.403,-46,1
-28,-16.8887,490,0
-29,-17.6558,456,2
-30,-18.3522,435,7
-31,-19.0216,391,0
-32,-19.7856,352,0
-33,-20.6589,313,3
-34,-20.932,304,1
-35,-21.7545,291,2
-36,-22.4083,286,0
-37,-23.1817,284,1
-38,-23.6122,250,8
-39,-23.7216,238,1
-40,-24.4222,106,0
-41,-25.0229,62,1
-42,-25.7659,59,0
-43,-26.6277,50,0
-44,-27.3909,-15,0
-43,-26.7523,361,0
-44,-27.2532,328,0
-45,-28.145,326,5
-46,-28.809,307,1
-47,-29.1334,306,1
-48,-29.5388,299,0
-49,-30.2965,255,1
-50,-30.6694,173,0
-51,-31.2528,150,0
-52,-32.0753,137,0
-53,-32.3547,132,1
-54,-33.2165,123,0
-55,-33.8008,102,0
-56,-34.0673,-52,0
-55,-33.3554,61,0
-56,-34.1195,27,0
-57,-34.8419,24,2
-58,-35.4974,-16,0
-57,-34.9293,653,0
-58,-35.5301,651,0
-59,-35.9987,628,5
-60,-36.4041,621,0
-61,-37.2959,619,0
-62,-38.1161,608,5
-63,-38.8738,564,2
-64,-39.5378,545,0
-65,-40.3276,533,2
-66,-40.437,521,1
-67,-41.3103,482,3
-68,-42.0213,477,1
-69,-42.6818,457,1
-70,-43.3641,416,0
-71,-44.1273,351,1
-72,-44.7811,346,1
-73,-45.4349,341,2
-74,-46.1989,302,1
-75,-46.7996,258,0
-76,-47.5002,126,2
-77,-48.3708,124,0
-78,-48.7757,100,0
-79,-49.5491,98,0
-80,-50.3074,75,1
-81,-50.8083,42,1
-82,-51.4777,-2,1
-81,-50.932,103,0
-82,-51.337,78,5
-83,-52.0001,73,1
-84,-52.418,20,0
-85,-52.7918,-26,0
-84,-52.0875,74,4
-85,-52.5233,26,1
-86,-53.2904,-8,1
-85,-52.8994,135,0
-86,-53.7039,133,2
-87,-54.4469,130,2
-88,-54.8774,96,3
-89,-55.5738,75,0
-90,-55.8469,66,1
-91,-56.6569,42,14
-92,-57.0298,-40,0
-91,-56.8295,291,2
-92,-57.2835,269,1
-93,-57.8669,246,0
-94,-58.3736,232,8
-95,-58.8404,181,1
-96,-59.2453,157,2
-97,-59.6758,123,0
-98,-60.1426,72,1
-99,-60.812,28,3
-100,-61.1849,-54,1
-99,-60.6695,412,6
-100,-61.5428,373,3
-101,-61.8672,372,0
-102,-62.657,360,1
-103,-63.0749,307,1
-104,-63.5758,274,0
-105,-64.2389,269,0
-106,-65.003,235,0
-107,-65.8648,226,3
-108,-66.5758,221,0
-109,-67.3429,187,4
-110,-67.4523,175,2
-111,-67.959,161,0
-112,-68.6161,144,6
-113,-69.1995,121,1
-114,-69.4789,116,1
-115,-70.1327,111,5
-116,-71.0033,109,0
-117,-71.6997,88,2
-118,-72.458,65,6
-119,-73.2212,0,0
-118,-72.4337,309,0
-119,-73.0345,307,0
-120,-73.7985,268,3
-121,-74.1723,222,3
-122,-74.9153,219,0
-123,-75.7253,195,1
-124,-76.6346,193,0
-125,-77.0704,145,0
-126,-77.6711,101,2
-127,-78.0765,94,3
-128,-78.7303,89,0
-129,-79.0034,80,0
-130,-79.6589,40,0
-131,-80.4166,-4,0
-130,-79.756,306,0
-131,-80.42,287,0
-132,-81.3118,285,0
-133,-81.9941,244,2
-134,-82.3887,243,0
-135,-83.0492,223,0
-136,-83.7498,91,6
-137,-84.1548,66,0
-138,-84.975,55,5
-139,-85.429,33,0
-140,-85.6955,-121,0
-139,-85.1272,24,1
-140,-85.7115,3,54
-141,-85.978,-151,0
-140,-85.587,-8,4
-139,-84.9484,368,0
-140,-85.6039,328,1
-141,-86.5132,326,1
-142,-86.9818,303,1
-143,-87.3997,250,2
-144,-88.1895,238,2
-145,-88.9119,235,0
-146,-89.679,201,1
-147,-89.9521,192,0
-148,-90.7746,179,1
-149,-91.471,158,5
-150,-92.182,153,2
-151,-92.8451,148,2
-152,-93.4989,143,3
-153,-93.7783,138,0
-154,-94.6701,136,1
-155,-95.0755,129,2
-156,-95.8855,105,2
-157,-96.6432,61,0
-158,-97.2275,40,3
-159,-97.6633,-8,0
-158,-97.1672,140,0
-159,-97.9312,101,0
-160,-98.3852,79,4
-161,-99.0858,-53,0
-160,-98.3707,186,0
-161,-99.2413,184,9
-162,-99.9053,165,0
-163,-100.2782,83,0
-164,-100.652,37,0
-165,-101.3091,20,0
-166,-102.1824,-19,0
-165,-101.6258,262,1
-166,-102.0308,237,3
-167,-102.4666,189,6
-168,-103.1204,184,1
-169,-103.8845,150,2
-170,-104.4853,148,1
-171,-104.5947,136,1
-172,-105.4565,127,0
-173,-105.9574,94,0
-174,-106.7776,83,0
-175,-107.6001,70,0
-176,-108.018,17,1
-177,-108.5247,3,81
-178,-108.8976,-79,2
-177,-108.316,158,0
-178,-109.1205,156,1
-179,-109.4943,110,1
-180,-110.1907,89,3
-181,-110.4572,-65,0
-180,-109.7966,245,3
-181,-110.4521,205,0
-182,-110.7315,200,2
-183,-111.3853,195,2
-184,-111.7902,171,1
-185,-112.4507,151,1
-186,-113.1513,19,4
-187,-113.9153,-20,1
-186,-113.4192,128,2
-187,-114.0832,109,2
-188,-114.737,104,2
-189,-115.3204,81,0
-190,-116.1822,72,4
-191,-116.5551,-10,2
-190,-116.1004,150,1
-191,-116.8902,138,0
-192,-117.7127,125,8
-193,-118.395,84,4
-194,-119.0581,79,0
-195,-119.7152,62,2
-196,-120.4729,18,4
-197,-120.8467,-28,2
-196,-120.3903,313,2
-197,-120.6697,308,2
-198,-121.2704,264,0
-199,-121.6754,239,2
-200,-122.546,237,0
-201,-123.2015,197,1
-202,-123.9598,174,2
-203,-124.6203,154,0
-204,-125.3633,151,0
-205,-125.8301,100,3
-206,-126.331,67,0
-207,-127.1512,56,3
-208,-127.8518,-76,2
-207,-127.0139,1079,0
-208,-127.8872,1040,0
-209,-128.6543,1006,0
-210,-129.0592,982,1
-211,-129.1686,970,2
-212,-129.5632,969,2
-213,-130.2326,925,1
-214,-130.9436,920,5
-215,-131.5974,915,2
-216,-132.4892,913,5
-217,-133.2937,911,1
-218,-133.7477,889,0
-219,-134.1835,841,0
-220,-134.9476,807,1
-221,-135.67,804,4
-222,-135.9365,650,1
-223,-136.6997,585,0
-224,-137.284,564,5
-225,-138.2241,563,2
-226,-139.1334,561,0
-227,-139.7889,521,6
-228,-140.0683,516,0
-229,-140.7506,475,1
-230,-141.4077,458,1
-231,-141.992,437,0
-232,-142.656,418,3
-233,-143.5961,417,1
-234,-143.9205,416,1
-235,-144.8298,414,0
-236,-145.4132,391,0
-237,-146.014,389,0
-238,-146.7104,368,1
-239,-147.5837,329,4
-240,-148.4755,327,1
-241,-149.1761,195,2
-242,-149.8299,190,0
-243,-150.5409,185,1
-244,-151.3509,161,0
-245,-152.1086,117,0
-246,-152.5265,64,1
-247,-153.3883,55,0
-248,-154.2085,44,0
-249,-154.8779,0,0
-248,-154.2393,376,3
-249,-154.9024,371,0
-250,-155.5031,327,1
-251,-156.2255,324,0
-252,-156.9989,322,0
-253,-157.1083,310,7
-254,-157.8513,307,5
-255,-158.2871,259,0
-256,-158.5536,105,0
-257,-158.9586,80,0
-258,-159.7227,46,1
-259,-160.2236,13,22
-260,-160.9907,-21,1
-259,-160.259,127,4
-260,-160.6328,81,1
-261,-161.2933,61,1
-262,-162.0573,22,7
-263,-162.5241,-29,2
-262,-161.8563,114,2
-263,-162.6788,101,3
-264,-163.4686,89,0
-265,-163.8991,55,0
-266,-164.6623,-10,0
-265,-164.0898,388,1
-266,-164.5584,365,3
-267,-165.1418,342,0
-268,-165.6104,319,1
-269,-166.4329,306,1
-270,-167.3062,267,1
-271,-167.9885,226,1
-272,-168.3934,202,1
-273,-168.9001,188,0
-274,-169.7203,177,1
-275,-170.3758,137,1
-276,-170.8767,104,1
-277,-171.3072,70,2
-278,-171.9643,53,1
-279,-172.565,9,3
-280,-173.3282,-56,6
-279,-172.6676,254,0
-280,-173.5382,252,1
-281,-173.974,204,1
-282,-174.3469,122,0
-283,-175.0007,117,5
-284,-175.8107,93,3
-285,-176.5113,-39,1
-284,-176.0932,167,0
-285,-176.8603,133,9
-286,-177.5713,128,5
-287,-177.8444,119,1
-288,-178.6021,75,1
-289,-179.2715,31,10
-290,-179.7383,-20,1
-289,-178.9508,289,0
-290,-179.7406,277,4
-291,-180.0071,123,4
-292,-180.7654,100,3
-293,-181.4285,95,3
-294,-182.1249,74,2
-295,-182.7854,54,1
-296,-183.2394,32,1
-297,-183.9034,13,3
-298,-184.2772,-33,0
-297,-183.5729,67,9
-298,-184.337,33,0
-299,-184.742,8,21
-300,-185.1149,-74,4
-299,-184.4471,69,0
-300,-184.9011,47,4
-301,-185.5705,3,17
-300,-185.0216,135,0
-301,-185.4902,112,0
-302,-185.8951,88,4
-303,-186.7051,64,0
-304,-187.0789,18,6
-305,-187.7795,-114,1
-304,-187.226,55,2
-305,-187.6565,21,3
-306,-188.4205,-18,4
-305,-188.1398,285,5
-306,-189.0131,246,3
-307,-189.6736,226,5
-308,-190.5354,217,0
-309,-191.1197,196,2
-310,-191.878,173,3
-311,-192.5603,132,2
-312,-193.3274,98,1
-313,-194.1499,85,2
-314,-194.2593,73,1
-315,-195.0795,62,7
-316,-195.5153,14,27
-317,-196.2824,-20,0
-316,-196.0017,283,1
-317,-196.7594,239,6
-318,-197.4234,220,1
-319,-198.0077,199,4
-320,-198.8279,188,3
-321,-199.1073,183,1
-322,-199.3804,174,1
-323,-199.7542,128,3
-324,-200.2551,95,4
-325,-200.9515,74,4
-326,-201.6338,33,1
-327,-202.4438,9,25
-328,-202.8167,-73,0
-327,-202.3157,168,9
-328,-202.7336,115,0
-329,-203.4976,76,0
-330,-204.167,32,3
-331,-204.4335,-122,2
-330,-203.6469,75,4
-331,-204.3475,-57,0
-330,-203.7697,339,1
-331,-204.6315,330,2
-332,-205.0983,279,2
-333,-205.7614,274,0
-334,-206.4219,254,1
-335,-207.1329,249,2
-336,-207.8961,184,0
-337,-208.6391,181,1
-338,-209.4616,168,0
-339,-209.8921,134,0
-340,-210.3607,111,1
-341,-210.7656,87,4
-342,-211.5297,53,1
-343,-211.9655,5,54
-344,-212.6661,-127,0
-343,-211.8704,559,8
-344,-212.5928,556,1
-345,-213.1771,535,3
-346,-214.0864,533,0
-347,-214.9066,522,1
-348,-215.3141,521,1
-349,-215.5806,367,3
-350,-216.2344,362,3
-351,-216.6523,309,0
-352,-217.0252,227,10
-353,-217.7362,222,6
-354,-218.1411,198,0
-355,-218.7245,175,1
-356,-219.1913,124,1
-357,-219.949,80,1
-358,-220.3848,32,4
-359,-220.8153,-2,1
-358,-220.1089,260,0
-359,-220.5629,238,8
-360,-221.3729,214,0
-361,-221.8796,200,0
-362,-222.285,193,0
-363,-222.9405,153,6
-364,-223.0499,141,5
-365,-223.7104,121,2
-366,-224.1409,87,7
-367,-224.5459,62,1
-368,-225.203,45,4
-369,-225.9701,11,16
-370,-226.4369,-40,3
-369,-225.7691,103,0
-370,-226.142,21,6
-371,-226.7427,-23,0
-370,-226.0621,534,0
-371,-226.8519,522,0
-372,-227.6096,478,2
-373,-228.3102,346,4
-374,-228.9796,302,2
-375,-229.7428,237,1
-376,-230.4068,218,2
-377,-231.0606,213,1
-378,-231.8246,174,0
-379,-232.2786,152,0
-380,-232.558,147,0
-381,-232.9318,101,3
-382,-233.1983,-53,2
-381,-232.4648,392,0
-382,-233.3266,383,2
-383,-233.8275,350,0
-384,-234.6375,326,1
-385,-235.442,324,0
-386,-236.2645,311,1
-387,-236.9183,306,0
-388,-237.1914,297,1
-389,-237.8469,257,0
-390,-238.2827,209,0
-391,-238.867,188,2
-392,-239.7403,149,3
-393,-240.4986,126,9
-394,-241.2627,92,9
-395,-241.8461,69,4
-396,-242.5284,28,8
-397,-242.9824,6,30
-398,-243.2489,-148,0
-397,-242.8947,127,2
-398,-243.5485,122,0
-399,-244.204,82,2
-400,-244.9004,61,1
-401,-245.7737,22,6
-402,-246.2095,-26,2
-401,-245.9288,277,1
-402,-246.6294,145,0
-403,-247.3935,111,0
-404,-248.1518,88,2
-405,-248.7361,67,6
-406,-248.8455,55,1
-407,-249.2504,31,1
-408,-249.9198,-13,0
-407,-249.5144,185,1
-408,-250.3762,176,3
-409,-250.8771,143,0
-410,-251.2821,118,3
-411,-251.7126,84,5
-412,-252.1305,31,5
-413,-252.8945,-8,2
-412,-252.5995,350,1
-413,-253.0663,299,2
-414,-253.5349,276,2
-415,-254.192,259,1
-416,-255.0145,246,11
-417,-255.2876,237,0
-418,-255.6614,191,0
-419,-256.2448,168,0
-420,-256.6177,86,2
-421,-257.0231,79,6
-422,-257.428,55,3
-423,-258.0974,11,4
-424,-258.3639,-143,7
-423,-258.0097,132,0
-424,-258.4637,110,4
-425,-258.8942,76,11
-426,-259.7144,65,0
-427,-260.4108,44,1
-428,-260.9942,21,10
-429,-261.43,-27,1
-428,-260.9157,509,0
-429,-261.825,507,2
-430,-262.2918,456,1
-431,-263.1651,417,1
-432,-263.8206,377,0
-433,-264.5789,354,0
-434,-265.2327,349,1
-435,-266.0427,325,0
-436,-266.6998,308,1
-437,-267.3638,289,2
-438,-267.9481,268,0
-439,-268.0575,256,4
-440,-268.7799,253,1
-441,-269.4805,121,0
-442,-270.303,108,0
-443,-271.0607,64,1
-444,-271.5616,31,2
-445,-271.9354,-15,4
-444,-271.2235,98,1
-445,-271.7302,84,0
-446,-272.1481,31,6
-447,-272.6167,8,110
-448,-272.8832,-146,0
-447,-272.2841,-26,0
-446,-271.7275,255,9
-447,-272.1324,231,5
-448,-272.8548,228,2
-449,-273.5086,223,2
-450,-273.8824,177,4
-451,-274.2878,170,2
-452,-274.6607,88,0
-453,-275.2614,44,1
-454,-275.6664,19,7
-455,-276.367,-113,1
-454,-275.987,167,0
-455,-276.7541,133,0
-456,-277.4112,116,5
-457,-277.8417,82,3
-458,-278.4424,38,0
-459,-278.8473,14,17
-460,-279.2202,-68,1
-459,-278.7059,468,0
-460,-279.5104,466,5
-461,-280.211,334,0
-462,-280.7953,313,10
-463,-281.2621,262,0
-464,-281.3715,250,9
-465,-282.0346,245,2
-466,-282.44,238,0
-467,-282.8579,185,0
-468,-283.7197,176,4
-469,-284.1555,128,4
-470,-284.5605,103,3
-471,-285.2299,59,3
-472,-285.7308,26,2
-473,-286.4885,-18,1
-472,-285.9396,114,0
-473,-286.523,91,2
-474,-287.1835,71,1
-475,-287.9506,37,6
-476,-288.7089,14,8
-477,-288.9754,-140,1
-476,-288.3148,170,0
-477,-289.078,105,1
-478,-289.842,66,1
-479,-290.5384,45,0
-480,-291.2024,26,3
-481,-291.5762,-20,0
-480,-290.8445,128,2
-481,-291.5,88,5
-482,-292.3733,49,1
-483,-293.1833,25,13
-484,-293.941,-19,1
-483,-293.5356,179,0
-484,-294.1894,174,1
-485,-294.5948,167,0
-486,-295.0127,114,12
-487,-295.6682,74,3
-488,-296.3322,55,1
-489,-296.8331,22,3
-490,-297.5337,-110,0
-489,-296.8784,281,0
-490,-297.2834,256,1
-491,-297.6572,210,1
-492,-297.9237,56,1
-493,-298.5842,36,3
-494,-299.02,-12,0
-493,-298.4711,120,8
-494,-298.9016,86,1
-495,-299.5839,45,2
-496,-300.3471,-20,0
-495,-299.5596,289,5
-496,-300.3267,255,1
-497,-300.6061,250,7
-498,-301.0729,199,0
-499,-301.1823,187,1
-500,-301.8361,182,9
-501,-302.5471,177,1
-502,-303.4089,168,0
-503,-304.0783,124,1
-504,-304.5469,101,1
-505,-305.2433,80,0
-506,-305.6482,56,0
-507,-306.4122,17,26
-508,-306.7851,-65,3
-507,-306.5044,238,0
-508,-307.1582,233,3
-509,-307.8546,212,2
-510,-308.1277,203,1
-511,-309.001,164,4
-512,-309.6704,120,0
-513,-310.2711,76,2
-514,-311.0294,53,4
-515,-311.4962,2,1
-514,-310.8046,234,1
-515,-311.6248,223,2
-516,-312.4473,210,2
-517,-313.0307,187,5
-518,-313.7948,153,1
-519,-314.2253,119,0
-520,-314.7262,86,0
-521,-315.1802,64,4
-522,-315.7645,43,4
-523,-316.1695,18,1
-524,-316.6053,-30,0
-523,-315.8495,73,3
-524,-316.2674,20,0
-525,-316.5339,-134,0
-524,-315.8786,257,0
-525,-316.6418,192,0
-526,-317.3424,60,3
-527,-317.7162,14,52
-528,-318.0891,-68,1
-527,-317.4505,308,5
-528,-317.8559,301,3
-529,-318.519,296,0
-530,-319.3808,287,1
-531,-319.8113,253,1
-532,-320.4936,212,1
-533,-321.0943,168,0
-534,-321.9145,157,0
-535,-322.0239,145,7
-536,-322.4907,94,2
-537,-322.7572,-60,6
-536,-322.1186,316,1
-537,-322.8818,251,12
-538,-323.6395,207,0
-539,-324.4495,183,0
-540,-324.9035,161,2
-541,-325.3393,113,2
-542,-325.8079,90,0
-543,-326.2129,65,1
-544,-326.87,48,3
-545,-327.4543,27,1
-546,-328.2184,-7,2
-545,-327.8642,268,3
-546,-328.5648,136,4
-547,-329.2288,117,4
-548,-329.6467,64,1
-549,-330.3072,44,0
-550,-330.681,-2,3
-549,-329.9746,260,3
-550,-330.7329,237,0
-551,-331.5554,224,1
-552,-332.0563,191,1
-553,-332.7101,186,1
-554,-333.3656,146,2
-555,-334.1327,112,7
-556,-335.006,73,0
-557,-335.3789,-9,1
-556,-334.541,1146,3
-557,-335.305,1107,8
-558,-336.016,1102,0
-559,-336.7894,1100,0
-560,-337.1943,1076,2
-561,-337.6018,1075,7
-562,-338.4243,1062,3
-563,-339.0798,1022,3
-564,-339.8532,1020,1
-565,-340.7625,1018,5
-566,-341.1363,972,1
-567,-341.737,928,3
-568,-342.3908,923,2
-569,-343.0539,918,0
-570,-343.3333,913,0
-571,-343.9341,911,2
-572,-344.3646,877,2
-573,-345.1691,875,2
-574,-345.6377,852,0
-575,-346.5295,850,0
-576,-347.2872,806,1
-577,-347.8706,783,0
-578,-348.2781,782,1
-579,-349.0679,770,1
-580,-349.8779,746,0
-581,-350.3447,695,1
-582,-351.1649,684,0
-583,-352.0267,675,1
-584,-352.6838,658,2
-585,-353.447,593,3
-586,-354.19,590,3
-587,-354.644,568,2
-588,-354.7534,556,2
-589,-355.4758,553,0
-590,-356.1398,534,4
-591,-356.4063,380,4
-592,-356.913,366,1
-593,-357.1861,357,0
-594,-357.604,304,4
-595,-358.0398,256,0
-596,-358.6936,251,1
-597,-359.4576,212,1
-598,-360.127,168,1
-599,-360.8911,134,4
-600,-361.4754,113,3
-601,-361.8808,106,0
-602,-362.2537,24,0
-603,-363.127,-15,0
-602,-362.5545,383,1
-603,-363.215,363,2
-604,-363.6199,339,3
-605,-364.1208,306,0
-606,-364.8172,285,2
-607,-365.4995,244,4
-608,-366.2001,112,2
-609,-366.6051,87,2
-610,-367.3722,53,1
-611,-368.1305,30,5
-612,-368.5663,-18,2
-611,-367.8328,427,3
-612,-368.5292,406,1
-613,-368.9832,384,0
-614,-369.45,333,0
-615,-369.8229,251,0
-616,-370.59,217,1
-617,-371.354,178,2
-618,-371.8549,145,2
-619,-372.3235,122,1
-620,-372.979,82,2
-621,-373.2455,-72,2
-620,-372.8951,127,2
-621,-373.7684,88,2
-622,-374.5325,54,12
-623,-374.9063,8,51
-622,-374.202,108,0
-623,-375.0245,95,11
-624,-375.4294,71,0
-625,-375.8344,46,4
-626,-376.6444,22,11
-627,-377.3138,-22,1
-626,-376.5235,583,2
-627,-377.1806,566,2
-628,-377.8411,546,0
-629,-378.2465,539,0
-630,-378.6194,457,0
-631,-379.4812,448,0
-632,-380.1367,408,2
-633,-381.01,369,8
-634,-381.7106,237,5
-635,-382.3929,196,1
-636,-382.8469,174,0
-637,-383.6101,109,0
-638,-384.4201,85,1
-639,-384.8869,34,7
-640,-385.1534,-120,0
-639,-384.6987,40,12
-640,-385.4627,1,0
-639,-385.1123,200,1
-640,-385.5172,176,2
-641,-386.2813,142,0
-642,-386.9777,121,1
-643,-387.3956,68,2
-644,-387.979,45,0
-645,-388.4148,-3,2
-644,-387.8613,166,0
-645,-388.6284,132,2
-646,-389.0022,86,2
-647,-389.8247,73,7
-648,-390.4254,29,11
-649,-390.8559,-5,3
-648,-390.4378,201,8
-649,-390.9064,178,0
-650,-391.4907,157,3
-651,-392.1547,138,4
-652,-392.9124,94,2
-653,-393.3174,69,1
-654,-393.4268,57,4
-655,-394.19,-8,2
-654,-393.3997,597,0
-655,-394.1668,563,0
-656,-395.0401,524,0
-657,-395.541,491,0
-658,-395.9464,484,0
-659,-396.6002,479,2
-660,-397.4102,455,0
-661,-397.7831,373,3
-662,-398.188,349,0
-663,-398.8435,309,1
-664,-399.5545,304,0
-665,-399.9595,279,1
-666,-400.4662,265,7
-667,-401.1485,224,1
-668,-401.9687,213,4
-669,-402.6258,196,0
-670,-403.2796,191,1
-671,-403.8803,147,2
-672,-404.638,103,4
-673,-404.9045,-51,3
-672,-404.3054,69,3
-673,-404.7722,18,0
-674,-405.4728,-114,0
-673,-404.7812,118,5
-674,-405.2117,84,2
-675,-405.6475,36,10
-676,-406.4115,-3,0
-675,-405.6791,368,3
-676,-406.5409,359,3
-677,-407.305,325,0
-678,-408.0274,322,6
-679,-408.4012,276,11
-680,-408.8191,223,0
-681,-409.4831,204,3
-682,-410.2414,181,0
-683,-410.8248,158,0
-684,-411.2934,135,0
-685,-411.9539,115,3
-686,-412.6233,71,4
-687,-412.7327,59,7
-688,-413.1867,37,12
-689,-413.9444,-7,0
-688,-413.1569,302,6
-689,-413.5298,220,3
-690,-414.1992,176,0
-691,-415.0194,165,1
-692,-415.8419,152,7
-693,-416.6051,87,5
-694,-417.2874,46,1
-695,-417.8708,23,6
-696,-418.1373,-131,0
-695,-417.3416,555,1
-696,-418.0422,423,0
-697,-418.832,411,2
-698,-419.543,406,6
-699,-420.4048,397,0
-700,-420.6779,388,0
-701,-421.4362,365,1
-702,-422.2033,331,5
-703,-422.8997,310,1
-704,-423.773,271,0
-705,-424.4268,266,5
-706,-425.0806,261,3
-707,-425.5164,213,0
-708,-425.8902,167,1
-709,-425.9996,155,0
-710,-426.6003,111,4
-711,-427.2608,91,1
-712,-427.7294,68,2
-713,-428.2361,54,0
-714,-428.737,21,0
-715,-429.1549,-32,0
-714,-428.7002,128,7
-715,-429.4642,89,2
-716,-430.1197,49,2
-717,-430.5247,24,6
-718,-430.9915,-27,0
-717,-430.2851,235,0
-718,-430.5645,230,2
-719,-431.3286,196,0
-720,-432.1386,172,1
-721,-432.5926,150,0
-722,-432.9975,126,2
-723,-433.428,92,10
-724,-434.2505,79,0
-725,-435.0082,35,11
-726,-435.7088,-97,0
-725,-435.1272,140,0
-726,-435.7106,117,2
-727,-436.1774,66,10
-728,-436.6783,33,0
-729,-436.9448,-121,0
-728,-436.716,415,0
-729,-437.1209,391,0
-730,-437.7814,371,2
-731,-438.4454,352,2
-732,-439.1025,335,0
-733,-439.8666,301,2
-734,-440.2395,219,1
-735,-440.9218,178,0
-736,-441.3758,156,5
-737,-441.4852,144,6
-738,-442.2523,110,2
-739,-443.1256,71,5
-740,-443.5614,23,17
-741,-443.9793,-30,1
-740,-443.4783,211,0
-741,-444.2415,146,1
-742,-445.0313,134,2
-743,-445.7277,113,4
-744,-446.5377,89,1
-745,-447.2071,45,8
-746,-447.8078,1,4
-745,-447.1717,347,3
-746,-447.9357,308,3
-747,-448.6051,264,4
-748,-449.3015,243,4
-749,-449.957,203,1
-750,-450.8303,164,5
-751,-451.2971,113,0
-752,-451.4065,101,0
-753,-452.0888,60,0
-754,-452.4626,14,27
-755,-452.8355,-68,1
-754,-452.2866,64,8
-755,-452.7045,11,45
-756,-453.4051,-121,0
-755,-452.8273,275,0
-756,-453.4107,252,5
-757,-454.1684,208,0
-758,-454.4415,199,4
-759,-455.3033,190,2
-760,-455.8876,169,0
-761,-456.7078,158,5
-762,-457.5303,145,1
-763,-458.1874,128,5
-764,-458.9514,89,3
-765,-459.4523,56,0
-766,-459.8252,-26,0
-765,-459.1336,206,1
-766,-459.6403,192,0
-767,-460.0761,144,0
-768,-460.7767,12,89
-769,-461.0432,-142,0
-768,-460.2874,-39,0
-767,-459.4999,270,11
-768,-459.9304,236,3
-769,-460.7404,212,3
-770,-461.1142,166,0
-771,-461.5321,113,2
-772,-462.2144,72,0
-773,-462.683,49,2
-774,-463.3385,9,8
-773,-462.5827,112,1
-774,-463.265,71,0
-775,-463.8493,50,1
-776,-464.6134,16,95
-777,-464.9863,-66,1
-776,-464.198799999999,243,0
-777,-464.9571,220,5
-778,-465.423899999999,169,3
-779,-465.828899999999,144,3
-780,-466.592099999999,79,1
-781,-466.858599999999,-75,1
-780,-466.440499999999,131,6
-781,-466.713599999999,122,0
-782,-467.370699999999,105,5
-783,-468.133899999999,40,9
-784,-468.734599999999,-4,0
-783,-468.0282,258,1
-784,-468.1376,246,1
-785,-468.8959,223,0
-786,-469.5965,91,9
-787,-470.0633,40,1
-788,-470.4938,6,3
-787,-469.7621,154,4
-788,-470.4261,135,0
-789,-471.190199999999,101,1
-790,-471.6442,79,5
-791,-472.227599999999,56,2
-792,-472.632499999999,32,4
-793,-473.505799999999,-7,1
-792,-472.990399999999,459,1
-793,-473.426199999999,411,3
-794,-474.183899999999,367,1
-795,-474.894899999999,362,0
-796,-475.548699999999,357,0
-797,-476.132999999999,336,1
-798,-476.505899999999,254,6
-799,-477.188199999999,213,8
-800,-477.955299999999,179,4
-801,-478.624699999999,135,0
-802,-479.414499999999,123,0
-803,-479.680999999999,-31,1
-802,-479.095499999999,621,0
-803,-479.957299999999,612,0
-804,-480.721299999999,573,0
-805,-481.139199999999,520,3
-806,-481.512999999999,474,1
-807,-482.168499999999,434,5
-808,-482.573499999999,409,3
-809,-483.395999999999,396,0
-810,-484.205999999999,372,4
-811,-484.674599999999,349,3
-812,-485.432899999999,326,0
-813,-485.542299999999,314,2
-814,-486.242899999999,182,1
-815,-486.615799999999,100,1
-816,-487.069799999999,78,11
-817,-487.725299999999,38,4
-818,-487.9918,-116,0
-817,-487.3369,176,0
-818,-488.033299999999,155,0
-819,-488.853499999999,144,2
-820,-489.611199999999,100,3
-821,-490.484499999999,61,7
-822,-491.148499999999,42,1
-823,-491.915599999999,8,26
-822,-491.197699999999,133,0
-823,-491.8582,113,1
-824,-492.293999999999,65,2
-825,-492.760799999999,14,68
-826,-493.133699999999,-68,0
-825,-492.565399999999,77,4
-826,-493.234799999999,33,9
-827,-493.935399999999,-99,1
-826,-493.243799999999,133,0
-827,-493.899299999999,93,2
-828,-494.400199999999,60,3
-829,-495.082499999999,19,62
-830,-495.845699999999,-46,0
-829,-495.616899999999,490,0
-830,-496.270699999999,485,2
-831,-496.675699999999,460,1
-832,-496.942199999999,306,7
-833,-497.602699999999,286,1
-834,-498.186099999999,263,7
-835,-499.047899999999,254,3
-836,-499.857899999999,230,1
-837,-500.621899999999,191,0
-838,-501.277399999999,151,0
-839,-502.0357,128,0
-840,-502.6364,84,1
-841,-503.4035,50,6
-842,-503.8085,25,7
-843,-504.1814,-57,0
-842,-503.725,284,8
-843,-504.2317,270,1
-844,-504.8888,253,0
-845,-505.5519,248,2
-846,-506.316,214,1
-847,-507.0737,170,9
-848,-507.4475,124,0
-849,-507.9015,102,0
-850,-508.6021,-30,2
-849,-508.3214,273,2
-850,-508.7882,222,1
-851,-509.2061,169,0
-852,-509.707,136,2
-853,-510.3893,95,0
-854,-511.1993,71,1
-855,-511.7836,50,9
-856,-512.1885,26,27
-857,-512.9517,-39,3
-856,-512.4028,84,6
-857,-512.669299999999,-70,2
-856,-512.1732,78,8
-857,-512.608999999999,30,23
-858,-513.044799999999,-18,2
-857,-512.288999999999,85,8
-858,-512.719499999999,51,13
-859,-513.093299999999,5,8
-858,-512.544399999999,128,7
-859,-512.810899999999,-26,2
-858,-512.077399999999,419,0
-859,-512.186799999999,407,2
-860,-512.843899999999,390,0
-861,-513.249299999999,383,3
-862,-513.622199999999,301,1
-863,-514.222899999999,257,2
-864,-514.986099999999,192,0
-865,-515.452899999999,141,1
-866,-515.953799999999,108,1
-867,-516.538099999999,87,3
-868,-517.238699999999,-45,0
-867,-516.541299999999,654,0
-868,-517.237699999999,633,0
-869,-518.001799999999,599,1
-870,-518.724199999999,596,0
-871,-519.481899999999,552,0
-872,-520.144999999999,547,6
-873,-520.549999999999,522,0
-874,-521.003999999999,500,9
-875,-521.877299999999,461,0
-876,-522.345899999999,438,1
-877,-523.056899999999,433,6
-878,-523.879399999999,420,0
-879,-524.534899999999,380,1
-880,-525.204299999999,336,2
-881,-525.483699999999,331,4
-882,-526.144199999999,311,2
-883,-526.907399999999,246,0
-884,-527.562899999999,206,7
-885,-528.385399999999,193,0
-886,-529.054799999999,149,5
-887,-529.638199999999,126,0
-888,-530.144899999999,112,3
-889,-530.808899999999,93,6
-890,-531.567199999999,70,2
-891,-531.940999999999,24,41
-892,-532.313899999999,-58,3
-891,-531.558099999999,45,0
-892,-531.963099999999,20,48
-893,-532.663699999999,-112,2
-892,-532.095599999999,557,2
-893,-532.777899999999,516,1
-894,-533.244699999999,465,0
-895,-533.967099999999,462,2
-896,-534.731199999999,428,1
-897,-535.136099999999,404,1
-898,-535.508999999999,322,0
-899,-535.775499999999,168,0
-900,-536.648799999999,129,0
-901,-537.117399999999,106,1
-902,-537.884499999999,72,6
-903,-538.553899999999,28,15
-904,-538.971799999999,-25,0
-903,-538.291199999999,532,1
-904,-538.891899999999,488,3
-905,-539.602899999999,483,2
-906,-540.285199999999,442,0
-907,-541.028199999999,439,1
-908,-541.458699999999,405,1
-909,-542.112499999999,400,0
-910,-542.776499999999,381,1
-911,-543.181499999999,356,4
-912,-543.939199999999,312,4
-913,-544.703199999999,273,0
-914,-545.076999999999,227,3
-915,-545.835299999999,204,6
-916,-546.697099999999,195,1
-917,-547.197999999999,162,3
-918,-547.987799999999,150,3
-919,-548.423599999999,102,1
-920,-549.186799999999,37,13
-921,-549.887399999999,-95,0
-920,-549.643299999999,454,0
-921,-550.048699999999,447,0
-922,-550.868899999999,436,1
-923,-551.452299999999,413,0
-924,-552.112799999999,393,2
-925,-552.385899999999,384,5
-926,-553.208399999999,371,6
-927,-553.662399999999,349,2
-928,-553.941799999999,344,1
-929,-554.051199999999,332,3
-930,-554.840999999999,320,2
-931,-555.702799999999,311,0
-932,-556.469899999999,277,0
-933,-557.132999999999,272,5
-934,-557.505899999999,190,8
-935,-558.264199999999,167,1
-936,-558.765099999999,134,2
-937,-559.529099999999,95,1
-938,-560.112499999999,72,4
-939,-560.813099999999,-60,1
-938,-560.231499999999,177,3
-939,-560.888599999999,160,3
-940,-561.472899999999,139,1
-941,-561.926899999999,117,4
-942,-562.395499999999,94,4
-943,-563.091899999999,73,1
-944,-563.496899999999,48,3
-945,-563.932699999999,0,3
-944,-563.476299999999,341,0
-945,-563.585699999999,329,2
-946,-564.267999999999,288,4
-947,-564.685899999999,235,4
-948,-565.443599999999,191,0
-949,-566.112999999999,147,1
-950,-566.713699999999,103,12
-951,-567.369199999999,63,8
-952,-567.742999999999,17,102
-953,-568.009499999999,-137,0
-952,-567.277799999999,11,5
-951,-566.573499999999,111,0
-952,-567.337599999999,77,1
-953,-568.001599999999,58,3
-954,-568.584999999999,35,6
-955,-569.285599999999,-97,2
-954,-568.624999999999,213,4
-955,-569.029999999999,188,1
-956,-569.402899999999,106,3
-957,-570.276199999999,67,7
-958,-571.043299999999,33,5
-959,-571.510099999999,-18,1
-958,-570.859699999999,212,8
-959,-571.649499999999,200,0
-960,-572.331799999999,159,0
-961,-573.095899999999,125,6
-962,-573.602599999999,111,2
-963,-574.284899999999,70,3
-964,-574.751699999999,19,10
-965,-575.124599999999,-63,0
-964,-574.337099999999,246,2
-965,-575.006499999999,202,4
-966,-575.460499999999,180,2
-967,-576.124499999999,161,0
-968,-576.554999999999,127,1
-969,-577.215499999999,107,1
-970,-577.816199999999,63,0
-971,-578.516799999999,-69,0
-970,-577.785099999999,79,10
-971,-578.542799999999,35,2
-972,-579.198299999999,-5,0
-971,-578.543399999999,287,3
-972,-579.353399999999,263,1
-973,-579.821999999999,240,3
-974,-580.683799999999,231,1
-975,-581.446999999999,166,10
-976,-582.210999999999,127,0
-977,-582.795299999999,106,3
-978,-583.200199999999,82,8
-979,-583.896599999999,61,7
-980,-584.270399999999,15,2
-981,-584.536899999999,-139,0
-980,-583.698999999999,1016,1
-981,-584.466099999999,982,0
-982,-584.871499999999,975,0
-983,-585.289399999999,922,0
-984,-586.011799999999,919,1
-985,-586.801599999999,907,1
-986,-587.458699999999,890,3
-987,-588.331999999999,851,0
-988,-588.985799999999,846,1
-989,-589.877599999999,844,0
-990,-590.150699999999,835,3
-991,-590.893699999999,832,1
-992,-591.394599999999,799,0
-993,-592.048399999999,794,0
-994,-592.806699999999,771,1
-995,-593.570799999999,737,0
-996,-593.837299999999,583,1
-997,-594.420699999999,560,0
-998,-595.076199999999,520,3
-999,-595.896399999999,509,0
-1000,-596.301799999999,502,0
-1001,-596.719699999999,449,3
-1002,-597.430699999999,444,0
-1003,-598.014999999999,423,0
-1004,-598.124399999999,411,4
-1005,-598.625299999999,378,0
-1006,-599.279099999999,373,6
-1007,-599.961399999999,332,1
-1008,-600.334299999999,250,2
-1009,-601.207599999999,211,1
-1010,-601.997399999999,199,7
-1011,-602.755099999999,155,8
-1012,-603.223699999999,132,0
-1013,-603.628699999999,107,3
-1014,-604.392699999999,68,5
-1015,-605.202699999999,44,2
-1016,-605.903299999999,-88,1
-1015,-605.248399999999,204,2
-1016,-605.684199999999,156,4
-1017,-606.341299999999,139,0
-1018,-606.746199999999,115,2
-1019,-607.509399999999,50,7
-1020,-607.976199999999,-1,5
-1019,-607.422699999999,168,4
-1020,-608.119099999999,147,13
-1021,-608.573099999999,125,0
-1022,-609.173799999999,81,1
-1023,-609.837799999999,62,0
-1024,-610.507199999999,18,49
-1025,-611.207799999999,-114,2
-1024,-610.370699999999,175,7
-1025,-610.824699999999,153,0
-1026,-611.644899999999,142,1
-1027,-612.467399999999,129,4
-1028,-613.225099999999,85,7
-1029,-613.825799999999,41,4
-1030,-614.481299999999,1,0
-1029,-613.965899999999,467,0
-1030,-614.662299999999,446,1
-1031,-615.246599999999,425,1
-1032,-615.519699999999,416,0
-1033,-616.176799999999,399,0
-1034,-616.456199999999,394,1
-1035,-616.722699999999,240,2
-1036,-617.386699999999,221,1
-1037,-617.804599999999,168,1
-1038,-618.273199999999,145,0
-1039,-619.062999999999,133,4
-1040,-619.732399999999,89,2
-1041,-620.605699999999,50,13
-1042,-620.978599999999,-32,3
-1041,-620.379499999999,88,6
-1042,-621.137799999998,65,2
-1043,-621.542699999998,41,5
-1044,-622.305899999998,-24,2
-1043,-622.010899999999,334,0
-1044,-622.777999999999,300,6
-1045,-623.600499999999,287,0
-1046,-624.030999999999,253,12
-1047,-624.614399999999,230,1
-1048,-625.019799999999,223,3
-1049,-625.424699999999,199,5
-1050,-626.088699999999,180,0
-1051,-626.542699999998,158,0
-1052,-627.306799999998,124,3
-1053,-627.989099999999,83,0
-1054,-628.406999999999,30,0
-1055,-628.779899999999,-52,3
-1054,-628.048199999998,96,2
-1055,-628.703699999998,56,0
-1056,-629.373099999998,12,7
-1057,-630.073699999998,-120,0
-1056,-629.506099999998,291,0
-1057,-629.941899999998,243,0
-1058,-630.815199999998,204,0
-1059,-631.635399999998,193,6
-1060,-632.102199999998,142,0
-1061,-632.368699999998,-12,1
-1060,-631.796199999998,386,0
-1061,-632.297099999998,353,5
-1062,-633.008099999998,348,5
-1063,-633.476699999998,325,3
-1064,-634.338499999998,316,0
-1065,-635.148499999998,292,0
-1066,-635.732799999998,271,1
-1067,-636.106599999998,225,5
-1068,-636.873699999998,191,2
-1069,-637.631399999998,147,7
-1070,-638.232099999998,103,3
-1071,-638.996099999998,64,4
-1072,-639.401099999998,39,15
-1073,-640.164299999998,-26,0
-1072,-639.457899999998,236,0
-1073,-639.964599999998,222,3
-1074,-640.418599999998,200,3
-1075,-641.291899999998,161,1
-1076,-642.050199999998,138,1
-1077,-642.710699999998,118,0
-1078,-643.468399999998,74,1
-1079,-644.235499999998,40,8
-1080,-644.917799999998,-1,0
-1079,-644.237199999998,556,4
-1080,-645.000399999998,491,1
-1081,-645.711399999998,486,3
-1082,-646.218099999998,472,0
-1083,-646.982099999998,433,1
-1084,-647.448899999998,382,1
-1085,-647.853799999998,358,5
-1086,-648.507599999998,353,0
-1087,-649.170699999998,348,0
-1088,-649.576099999998,341,0
-1089,-649.949899999998,295,0
-1090,-650.619299999998,251,4
-1091,-650.885799999998,97,0
-1092,-651.549799999998,78,0
-1093,-652.313899999998,44,1
-1094,-652.744399999998,10,1
-1093,-652.176099999998,155,3
-1094,-652.965899999998,143,3
-1095,-653.621399999998,103,5
-1096,-654.431399999998,79,2
-1097,-655.032099999998,35,2
-1098,-655.732699999998,-97,2
-1097,-655.000299999998,274,2
-1098,-655.822799999998,261,2
-1099,-656.258599999998,213,0
-1100,-656.531699999998,204,4
-1101,-657.000299999998,181,1
-1102,-657.820499999998,170,7
-1103,-657.929899999998,158,1
-1104,-658.513299999998,135,2
-1105,-658.886199999998,53,11
-1106,-659.304099999998,0,0
-1105,-658.714099999998,262,13
-1106,-659.214999999998,229,1
-1107,-659.972699999998,185,1
-1108,-660.556099999998,162,2
-1109,-660.822599999998,8,6
-1108,-660.254299999998,153,7
-1109,-661.017499999998,88,1
-1110,-661.672999999998,48,15
-1111,-662.046799999998,2,3
-1110,-661.766099999998,305,0
-1111,-662.588599999998,292,0
-1112,-662.993999999998,285,1
-1113,-663.460799999998,234,0
-1114,-663.914799999998,212,0
-1115,-664.578799999998,193,2
-1116,-665.014599999998,145,1
-1117,-665.781699999998,111,5
-1118,-666.186699999998,86,2
-1119,-666.617199999998,52,14
-1120,-667.217899999998,8,3
-1119,-666.505999999998,121,3
-1120,-667.175399999998,77,1
-1121,-667.985399999998,53,14
-1122,-668.358299999998,-29,1
-1121,-667.902299999998,209,0
-1122,-668.486599999998,188,6
-1123,-669.147099999998,168,0
-1124,-669.967299999998,157,0
-1125,-670.667899999998,25,30
-1126,-671.040799999998,-57,3
-1125,-670.491899999998,75,3
-1126,-670.865699999998,29,44
-1127,-671.628899999998,-36,1
-1126,-671.348199999998,267,1
-1127,-671.802199999997,245,5
-1128,-672.462699999997,225,2
-1129,-673.272699999997,201,7
-1130,-673.739499999997,150,0
-1131,-674.396599999997,133,2
-1132,-674.897499999997,100,1
-1133,-675.302399999997,76,4
-1134,-675.568899999997,-78,2
-1133,-674.888299999997,479,2
-1134,-675.293299999997,454,1
-1135,-675.975599999997,413,1
-1136,-676.482299999997,399,0
-1137,-676.755399999997,390,4
-1138,-677.455999999997,258,0
-1139,-678.219999999997,219,6
-1140,-678.820699999997,175,5
-1141,-678.930099999997,163,0
-1142,-679.694199999997,129,2
-1143,-680.458299999997,95,0
-1144,-681.042599999997,74,16
-1145,-681.625999999997,51,18
-1146,-682.383699999997,7,5
-1145,-681.834799999997,139,8
-1146,-682.535399999997,7,4
-1145,-682.080699999997,167,3
-1146,-682.750099999997,123,4
-1147,-683.180599999997,89,3
-1148,-683.647399999997,38,11
-1149,-684.065299999997,-15,0
-1148,-683.519599999997,90,3
-1149,-683.893399999997,44,16
-1150,-684.657399999997,5,0
-1149,-684.161299999997,153,1
-1150,-684.816799999997,113,3
-1151,-685.417499999997,69,4
-1152,-686.180699999997,4,0
-1151,-685.525399999997,395,0
-1152,-685.791899999997,241,0
-1153,-686.448999999997,224,1
-1154,-687.238799999997,212,0
-1155,-687.902799999997,193,5
-1156,-688.356799999997,171,2
-1157,-688.792599999997,123,3
-1158,-689.555799999997,58,4
-1159,-690.319799999997,19,22
-1160,-690.692699999997,-63,1
-1159,-690.037799999997,229,5
-1160,-690.304299999997,75,4
-1161,-690.772899999997,52,2
-1162,-691.539999999997,18,34
-1163,-692.240599999997,-114,5
-1162,-691.579999999997,196,1
-1163,-692.235499999997,156,1
-1164,-692.736399999997,123,4
-1165,-693.110199999997,77,8
-1166,-693.779599999997,33,48
-1167,-694.215399999997,-15,0
-1166,-693.547599999997,128,6
-1167,-693.921399999997,82,0
-1168,-694.326299999997,58,1
-1169,-695.199599999997,19,38
-1170,-695.900199999997,-113,0
-1169,-695.215899999997,242,0
-1170,-695.979899999997,203,7
-1171,-696.397799999997,150,0
-1172,-697.164899999997,116,4
-1173,-697.825399999997,96,2
-1174,-698.255899999997,62,3
-1175,-698.522399999997,-92,1
-1174,-698.227399999997,266,0
-1175,-699.017199999997,254,2
-1176,-699.601499999997,233,2
-1177,-699.710899999997,221,0
-1178,-700.311599999997,177,3
-1179,-701.074799999997,112,1
-1180,-701.832499999997,68,0
-1181,-702.299299999997,17,86
-1182,-702.999899999997,-115,1
-1181,-702.357299999997,53,6
-1182,-703.124399999997,19,21
-1183,-703.497299999997,-63,1
-1182,-703.106299999997,80,8
-1183,-703.690599999997,59,8
-1184,-704.346099999997,19,2
-1185,-704.612599999997,-135,4
-1184,-704.063699999997,-3,0
-1183,-703.464599999997,117,3
-1184,-704.227799999997,52,7
-1185,-704.928399999997,-80,0
-1184,-704.285799999997,88,9
-1185,-705.049899999997,54,8
-1186,-705.516699999997,3,2
-1185,-705.060699999997,241,0
-1186,-705.333799999997,232,0
-1187,-706.092099999997,209,9
-1188,-706.465899999997,163,0
-1189,-707.129899999997,144,7
-1190,-707.502799999997,62,2
-1191,-707.920699999997,9,20
-1190,-707.465999999997,169,2
-1191,-707.732499999997,15,30
-1190,-707.186799999997,120,1
-1191,-707.787499999997,76,7
-1192,-708.554599999997,42,2
-1193,-709.317799999997,-23,1
-1192,-708.662499999997,368,1
-1193,-709.484999999997,355,1
-1194,-709.985899999997,322,1
-1195,-710.390799999997,298,0
-1196,-711.264099999997,259,7
-1197,-712.021799999997,215,0
-1198,-712.785899999997,181,1
-1199,-713.446399999997,161,0
-1200,-713.947299999997,128,0
-1201,-714.383099999997,80,1
-1202,-714.967399999997,59,7
-1203,-715.340299999997,-23,2
-1202,-714.684999999997,368,1
-1203,-715.546799999997,359,3
-1204,-715.819899999997,350,0
-1205,-716.586999999997,316,7
-1206,-716.960799999997,270,0
-1207,-717.617899999997,253,6
-1208,-718.218599999997,209,1
-1209,-718.982599999997,170,4
-1210,-719.449399999997,119,4
-1211,-720.131699999997,78,1
-1212,-720.832299999997,-54,0
-1211,-720.286599999997,51,7
-1212,-720.704499999997,-2,0
-1211,-720.475699999997,534,1
-1212,-721.131199999997,494,2
-1213,-721.410599999997,489,4
-1214,-722.233099999997,476,1
-1215,-722.929499999997,455,0
-1216,-723.398099999997,432,5
-1217,-724.161299999997,367,2
-1218,-724.427799999997,213,0
-1219,-725.301099999997,174,0
-1220,-725.731599999997,140,1
-1221,-726.395599999997,121,14
-1222,-727.064999999997,77,1
-1223,-727.469899999997,53,25
-1224,-728.139299999997,9,5
-1223,-727.471499999997,152,5
-1224,-728.293999999997,139,5
-1225,-728.666899999997,57,18
-1226,-729.267599999996,13,40
-1225,-728.563299999997,113,16
-1226,-728.999099999996,65,17
-1227,-729.499999999996,32,2
-1228,-729.766499999996,-122,3
-1227,-729.010699999996,-19,1
-1226,-728.715699999996,339,1
-1227,-729.182499999996,288,0
-1228,-729.878899999997,267,0
-1229,-729.988299999997,255,0
-1230,-730.688899999997,123,3
-1231,-731.119399999997,89,1
-1232,-731.703699999997,68,13
-1233,-732.121599999997,15,7
-1234,-732.822199999997,-117,0
-1233,-732.254599999997,294,1
-1234,-733.044399999997,282,0
-1235,-733.627799999997,259,0
-1236,-734.081799999997,237,1
-1237,-734.778199999997,216,1
-1238,-735.183099999997,192,2
-1239,-735.588099999997,167,5
-1240,-735.854599999997,13,26
-1239,-735.308899999997,118,1
-1240,-736.066599999997,74,2
-1241,-736.748899999997,33,8
-1242,-737.215699999997,-18,3
-1241,-736.511399999997,82,0
-1242,-737.275499999997,48,2
-1243,-737.876199999997,4,0
-1242,-737.039099999997,293,0
-1243,-737.696199999997,276,0
-1244,-738.351699999997,236,2
-1245,-739.118799999997,202,7
-1246,-739.491699999997,120,15
-1247,-740.254899999997,55,0
-1248,-740.690699999997,7,0
-1247,-740.137199999997,176,4
-1248,-741.010499999997,137,6
-1249,-741.511399999997,104,4
-1250,-742.275399999997,65,12
-1251,-743.038599999997,0,0
-1250,-742.470499999997,669,2
-1251,-742.977199999997,655,2
-1252,-743.478099999997,622,0
-1253,-744.339899999997,613,0
-1254,-744.757799999997,560,0
-1255,-745.162799999997,535,2
-1256,-745.746199999997,512,3
-1257,-746.019299999997,503,3
-1258,-746.487899999997,480,3
-1259,-747.072199999997,459,2
-1260,-747.445999999997,413,1
-1261,-747.876499999997,379,4
-1262,-748.530299999997,374,1
-1263,-749.350499999997,363,0
-1264,-749.755899999997,356,0
-1265,-750.416399999997,336,2
-1266,-750.852199999997,288,1
-1267,-751.610499999997,265,2
-1268,-752.064499999997,243,3
-1269,-752.828599999997,209,2
-1270,-753.701899999997,170,5
-1271,-754.365899999996,151,0
-1272,-755.066499999996,19,27
-1273,-755.332999999996,-135,1
-1272,-754.755199999996,261,0
-1273,-755.424599999996,217,4
-1274,-756.025299999996,173,5
-1275,-756.707599999996,132,0
-1276,-757.080499999996,50,3
-1277,-757.838199999996,6,4
-1276,-757.146599999996,238,4
-1277,-757.653299999996,224,0
-1278,-758.420399999996,190,0
-1279,-759.102699999997,149,0
-1280,-759.766699999996,130,0
-1281,-760.530799999996,96,1
-1282,-761.294799999996,57,4
-1283,-761.950299999996,17,69
-1284,-762.216799999996,-137,2
-1283,-761.483299999996,308,1
-1284,-762.143799999996,288,9
-1285,-762.728099999996,267,1
-1286,-763.485799999996,223,8
-1287,-763.859599999996,177,0
-1288,-764.460299999996,133,3
-1289,-764.878199999996,80,1
-1290,-765.578799999996,-52,0
-1289,-764.887199999996,180,0
-1290,-765.292099999996,156,0
-1291,-765.401499999996,144,16
-1292,-765.775299999996,98,7
-1293,-766.229299999996,76,8
-1294,-766.996399999996,42,23
-1295,-767.665799999996,-2,0
-1294,-766.953899999996,111,6
-1295,-767.617899999996,92,2
-1296,-768.053699999996,44,11
-1297,-768.426599999996,-38,2
-1296,-767.765999999996,272,0
-1297,-768.350299999996,251,0
-1298,-769.107999999996,207,2
-1299,-769.981299999996,168,0
-1300,-770.411799999996,134,3
-1301,-771.012499999996,90,2
-1302,-771.708899999996,69,1
-1303,-772.364399999996,29,25
-1304,-772.630899999996,-125,0
-1303,-772.176199999996,35,3
-1304,-772.939399999996,-30,0
-1303,-772.349399999996,232,0
-1304,-772.817999999996,209,3
-1305,-773.627999999996,185,0
-1306,-774.134699999996,171,1
-1307,-774.635599999996,138,13
-1308,-775.040599999996,113,12
-1309,-775.704599999996,94,1
-1310,-776.467799999996,29,16
-1311,-776.840699999996,-53,1
-1310,-776.339699999996,188,1
-1311,-777.097399999996,144,0
-1312,-777.206799999996,132,3
-1313,-777.903199999996,111,0
-1314,-778.713199999996,87,3
-1315,-779.148999999996,39,21
-1316,-779.566899999996,-14,0
-1315,-778.853299999996,272,1
-1316,-779.535599999996,231,0
-1317,-780.397399999996,222,1
-1318,-780.865999999996,199,5
-1319,-781.633099999996,165,0
-1320,-782.302499999996,121,1
-1321,-782.959599999996,104,10
-1322,-783.723699999996,70,17
-1323,-784.596999999996,31,3
-1324,-785.297599999996,-101,0
-1323,-784.585699999996,12,7
-1324,-784.852199999996,-142,0
-1323,-784.298699999996,27,14
-1324,-784.999299999996,-105,0
-1323,-784.442699999996,176,1
-1324,-784.873199999996,142,0
-1325,-785.683199999996,118,0
-1326,-786.340299999996,101,5
-1327,-786.841199999996,68,0
-1328,-787.605199999996,29,6
-1329,-787.978099999996,-53,1
-1328,-787.627699999996,146,10
-1329,-788.291699999996,127,5
-1330,-788.696699999996,102,0
-1331,-789.280099999996,79,1
-1332,-789.734099999996,57,15
-1333,-790.389599999996,17,62
-1334,-790.656099999996,-137,0
-1333,-790.155099999996,104,3
-1334,-790.590899999996,56,0
-1335,-791.354099999996,-9,0
-1334,-790.898099999996,229,4
-1335,-791.580399999996,188,1
-1336,-792.244399999996,169,3
-1337,-792.828699999996,148,3
-1338,-793.335399999996,134,1
-1339,-793.789399999996,112,7
-1340,-794.256199999996,61,2
-1341,-794.629999999996,15,16
-1342,-795.330599999996,-117,1
-1341,-794.598199999996,254,1
-1342,-795.355899999996,210,2
-1343,-796.145699999996,198,0
-1344,-796.563599999996,145,4
-1345,-797.224099999996,125,5
-1346,-797.596999999996,43,6
-1347,-798.266399999996,-1,0
-1346,-797.848299999996,205,1
-1347,-798.658299999996,181,0
-1348,-799.063299999996,156,14
-1349,-799.827299999996,117,4
-1350,-800.585599999996,94,3
-1351,-801.086499999996,61,2
-1352,-801.741999999996,21,16
-1353,-802.008499999995,-133,0
-1352,-801.294899999995,153,2
-1353,-801.725399999995,119,0
-1354,-802.130299999995,95,6
-1355,-802.598899999996,72,0
-1356,-802.865399999995,-82,0
-1355,-802.408999999995,259,0
-1356,-803.172999999995,220,1
-1357,-803.603499999996,186,2
-1358,-804.187799999995,165,0
-1359,-804.857199999995,121,1
-1360,-805.262199999995,96,0
-1361,-806.019899999995,52,2
-1362,-806.393699999995,6,3
-1361,-805.903899999995,215,1
-1362,-806.713899999995,191,3
-1363,-807.118799999995,167,0
-1364,-807.774299999995,127,3
-1365,-808.434799999995,107,5
-1366,-809.098799999995,88,10
-1367,-809.799399999995,-44,0
-1366,-809.381299999995,162,0
-1367,-809.490699999995,150,3
-1368,-809.957499999995,99,4
-1369,-810.458399999995,66,5
-1370,-810.894199999995,18,61
-1369,-810.138399999995,121,5
-1370,-810.795499999995,104,0
-1371,-811.264099999995,81,14
-1372,-811.694599999995,47,0
-1373,-812.161399999996,-4,2
-1372,-811.645999999996,462,5
-1373,-812.050999999996,437,0
-1374,-812.814999999996,398,4
-1375,-813.472099999996,381,0
-1376,-813.972999999996,348,0
-1377,-814.345899999995,266,3
-1378,-814.612399999995,112,4
-1379,-815.308799999995,91,3
-1380,-816.067099999995,68,5
-1381,-816.440899999995,22,49
-1382,-817.141499999995,-110,4
-1381,-816.505399999995,236,4
-1382,-816.923299999995,183,1
-1383,-817.391899999995,160,3
-1384,-818.149599999995,116,0
-1385,-818.912799999995,51,4
-1386,-819.595099999995,10,8
-1385,-818.890799999995,110,2
-1386,-819.591399999995,-22,0
-1385,-819.090399999996,219,2
-1386,-819.495299999996,195,5
-1387,-820.177599999996,154,1
-1388,-820.935899999996,131,5
-1389,-821.404499999996,108,0
-1390,-822.168499999996,69,1
-1391,-822.935599999996,35,23
-1392,-823.402399999996,-16,0
-1391,-822.820799999996,221,0
-1392,-823.194599999996,175,4
-1393,-823.461099999996,21,31
-1394,-823.833999999996,-61,0
-1393,-823.129699999996,39,37
-1394,-823.547599999996,-14,0
-1393,-822.892699999996,278,7
-1394,-823.715199999996,265,10
-1395,-824.370699999996,225,0
-1396,-824.954099999995,202,1
-1397,-825.776599999995,189,1
-1398,-826.540599999995,150,2
-1399,-826.994599999995,128,2
-1400,-827.103999999995,116,4
-1401,-827.688299999995,95,3
-1402,-828.189199999995,62,0
-1403,-828.946899999995,18,39
-1404,-829.213399999995,-136,3
-1403,-828.521799999995,96,2
-1404,-828.926699999995,72,5
-1405,-829.299599999995,-10,2
-1404,-828.919599999995,270,1
-1405,-829.781399999995,261,1
-1406,-830.054499999995,252,0
-1407,-830.818599999995,218,14
-1408,-831.475699999995,201,3
-1409,-832.285699999995,177,2
-1410,-832.752499999995,126,0
-1411,-833.453099999995,-6,0
-1410,-832.737999999995,233,8
-1411,-833.401999999995,214,0
-1412,-834.098399999995,193,0
-1413,-834.856699999995,170,0
-1414,-835.261699999995,145,11
-1415,-835.943999999995,104,8
-1416,-836.708099999995,70,5
-1417,-837.363599999995,30,66
-1418,-837.630099999995,-124,3
-1417,-836.925799999995,-24,4
-1416,-836.681699999995,525,8
-1417,-837.148499999995,474,3
-1418,-838.021799999995,435,3
-1419,-838.785799999995,396,0
-1420,-838.895199999995,384,5
-1421,-839.559199999995,365,0
-1422,-840.326299999995,331,1
-1423,-840.699199999995,249,0
-1424,-841.205899999995,235,1
-1425,-841.963599999995,191,1
-1426,-842.664199999995,59,2
-1427,-843.099999999995,11,2
-1426,-842.531699999995,156,1
-1427,-843.228099999995,135,1
-1428,-843.995199999995,101,0
-1429,-844.368099999995,19,19
-1430,-845.068699999995,-113,7
-1429,-844.663299999995,85,1
-1430,-845.093799999995,51,17
-1431,-845.360299999995,-103,2
-1430,-845.116199999995,446,1
-1431,-845.780199999995,427,1
-1432,-846.537899999995,383,8
-1433,-847.198399999995,363,3
-1434,-847.962399999995,324,0
-1435,-848.631799999995,280,0
-1436,-849.288899999995,263,5
-1437,-849.889599999995,219,6
-1438,-850.307499999995,166,9
-1439,-851.129999999995,153,1
-1440,-852.003299999995,114,2
-1441,-852.471899999995,91,7
-1442,-852.907699999995,43,27
-1443,-853.281499999995,-3,2
-1442,-852.597199999995,352,4
-1443,-853.355499999995,329,1
-1444,-853.822299999995,278,2
-1445,-854.406599999995,257,0
-1446,-855.216599999995,233,3
-1447,-855.325999999995,221,3
-1448,-856.148499999995,208,0
-1449,-856.421599999995,199,1
-1450,-856.852099999995,165,1
-1451,-857.118599999995,11,1
-1450,-856.450799999995,154,7
-1451,-857.147199999995,133,0
-1452,-857.552099999995,109,0
-1453,-858.052999999995,76,20
-1454,-858.816199999995,11,3
-1453,-858.267299999995,134,2
-1454,-858.936699999995,90,7
-1455,-859.700699999995,51,9
-1456,-860.073599999995,-31,0
-1455,-859.430999999995,137,4
-1456,-860.304299999995,98,0
-1457,-861.004899999995,-34,0
-1456,-860.548899999995,204,4
-1457,-860.953899999995,179,4
-1458,-861.720999999995,145,1
-1459,-862.384999999995,126,2
-1460,-862.802899999995,73,10
-1461,-863.560599999995,29,84
-1462,-863.827099999995,-125,0
-1461,-863.249299999995,271,0
-1462,-863.716099999995,220,0
-1463,-863.989199999995,211,2
-1464,-864.752399999995,146,0
-1465,-865.353099999995,102,2
-1466,-866.120199999995,68,6
-1467,-866.621099999995,35,8
-1468,-867.038999999995,-18,2
-1467,-866.341599999995,681,11
-1468,-867.042199999995,549,3
-1469,-867.415099999995,467,3
-1470,-868.172799999995,423,4
-1471,-868.828299999995,383,1
-1472,-869.524699999995,362,9
-1473,-869.929599999995,338,4
-1474,-870.398199999995,315,2
-1475,-871.098799999995,183,4
-1476,-871.781099999995,142,0
-1477,-872.544299999995,77,13
-1478,-872.974799999995,43,32
-1479,-873.348599999995,-3,0
-1478,-872.852499999995,145,2
-1479,-873.725799999995,106,1
-1480,-874.422199999995,85,1
-1481,-874.840099999995,32,1
-1482,-875.212999999995,-50,3
-1481,-874.375099999995,1105,0
-1482,-874.654499999995,1100,0
-1483,-875.090299999995,1052,1
-1484,-875.363399999995,1043,0
-1485,-876.127499999995,1009,7
-1486,-876.885799999995,986,4
-1487,-877.548899999995,981,3
-1488,-878.132299999995,958,0
-1489,-878.599099999995,907,1
-1490,-879.268499999995,863,1
-1491,-880.130299999995,854,0
-1492,-880.396799999995,700,6
-1493,-881.160799999995,661,4
-1494,-881.661699999995,628,2
-1495,-882.481899999995,617,3
-1496,-883.239599999995,573,1
-1497,-884.049599999995,549,2
-1498,-884.422499999995,467,1
-1499,-884.876499999995,445,0
-1500,-885.545899999995,401,2
-1501,-886.130199999995,380,0
-1502,-886.897299999995,346,2
-1503,-887.557799999995,326,0
-1504,-887.667199999995,314,0
-1505,-888.173899999995,300,0
-1506,-888.604399999995,266,1
-1507,-889.261499999995,249,4
-1508,-889.666399999995,225,0
-1509,-890.488899999995,212,5
-1510,-891.246599999995,168,1
-1511,-892.009799999995,103,3
-1512,-892.610499999995,59,28
-1513,-893.265999999995,19,8
-1514,-893.966599999995,-113,1
-1513,-893.269199999995,586,1
-1514,-893.951499999995,545,1
-1515,-894.418299999995,494,6
-1516,-894.792099999995,448,1
-1517,-895.556199999995,414,1
-1518,-896.366199999995,390,4
-1519,-896.632699999995,236,1
-1520,-897.396699999995,197,0
-1521,-897.669799999995,188,3
-1522,-898.366199999995,167,4
-1523,-898.867099999995,134,24
-1524,-899.740399999995,95,1
-1525,-900.176199999995,47,56
-1526,-900.939399999995,-18,2
-1525,-900.658699999995,285,5
-1526,-901.481199999995,272,1
-1527,-901.982099999995,239,9
-1528,-902.448899999995,188,0
-1529,-903.112899999995,169,1
-1530,-903.713599999995,125,5
-1531,-904.086499999995,43,4
-1532,-904.460299999995,-3,0
-1531,-903.817699999995,165,2
-1532,-904.627699999995,141,3
-1533,-905.385399999995,97,11
-1534,-906.152499999995,63,0
-1535,-906.834799999995,22,13
-1536,-907.101299999995,-132,2
-1535,-906.264199999995,157,4
-1536,-906.964799999995,25,53
-1537,-907.665399999995,-107,0
-1536,-907.116499999995,25,2
-1537,-907.489399999995,-57,1
-1536,-906.701899999995,252,0
-1537,-906.811299999995,240,3
-1538,-907.574499999995,175,1
-1539,-908.332199999995,131,0
-1540,-908.833099999995,98,1
-1541,-909.268899999995,50,30
-1542,-909.938299999995,6,0
-1541,-909.369999999995,151,4
-1542,-909.970699999995,107,2
-1543,-910.554099999995,84,8
-1544,-911.321199999995,50,2
-1545,-911.587699999995,-104,3
-1544,-910.797399999995,501,2
-1545,-911.451199999995,496,1
-1546,-912.261199999995,472,2
-1547,-912.957599999995,451,0
-1548,-913.362599999995,426,2
-1549,-914.058999999995,405,0
-1550,-914.848799999995,393,3
-1551,-915.284599999995,345,0
-1552,-916.047799999995,280,2
-1553,-916.811899999995,246,0
-1554,-917.265899999995,224,8
-1555,-918.024199999994,201,4
-1556,-918.530899999995,187,0
-1557,-919.404199999994,148,3
-1558,-919.905099999994,115,1
-1559,-920.569099999994,96,9
-1560,-921.333099999994,57,2
-1561,-922.015399999995,16,24
-1562,-922.281899999994,-138,4
-1561,-921.825899999994,100,1
-1562,-922.495299999994,56,0
-1563,-922.913199999995,3,0
-1562,-922.181499999994,151,3
-1563,-922.290899999995,139,4
-1564,-922.947999999995,122,3
-1565,-923.757999999994,98,1
-1566,-924.224799999995,47,6
-1567,-924.598599999994,1,1
-1566,-924.354499999994,550,2
-1567,-925.008299999995,545,0
-1568,-925.591699999994,522,2
-1569,-926.245499999995,517,0
-1570,-926.846199999995,473,1
-1571,-927.251599999994,466,2
-1572,-928.018699999995,432,8
-1573,-928.776399999995,388,2
-1574,-929.244999999995,365,0
-1575,-929.649899999995,341,1
-1576,-930.305399999995,301,1
-1577,-930.759399999994,279,3
-1578,-931.025899999994,125,1
-1579,-931.792999999994,91,5
-1580,-932.210899999994,38,16
-1581,-932.974099999994,-27,0
-1580,-932.323699999994,203,6
-1581,-932.728699999994,178,7
-1582,-933.398099999994,134,2
-1583,-933.771899999994,88,0
-1584,-934.372599999994,44,21
-1585,-934.745499999994,-38,1
-1584,-934.244499999994,203,4
-1585,-934.649399999994,179,2
-1586,-935.522699999994,140,4
-1587,-936.106999999994,119,2
-1588,-936.864699999994,75,7
-1589,-937.365599999994,42,9
-1590,-937.801399999994,-6,3
-1589,-937.255699999994,99,5
-1590,-937.956299999994,-33,0
-1589,-937.370799999994,619,1
-1590,-937.801299999994,585,1
-1591,-938.461799999994,565,2
-1592,-939.271799999994,541,1
-1593,-939.925599999994,536,3
-1594,-940.582699999994,519,1
-1595,-940.862099999994,514,1
-1596,-941.525199999994,509,0
-1597,-942.194599999994,465,0
-1598,-942.855099999994,445,0
-1599,-943.613399999994,422,1
-1600,-944.380499999994,388,0
-1601,-944.963899999994,365,1
-1602,-945.464799999994,332,1
-1603,-945.918799999994,310,0
-1604,-946.387399999994,287,0
-1605,-947.145099999994,243,3
-1606,-947.729399999994,222,1
-1607,-948.539399999994,198,4
-1608,-949.196499999994,181,10
-1609,-949.797199999994,137,2
-1610,-950.215099999994,84,15
-1611,-950.978299999994,19,1
-1610,-950.222499999994,122,5
-1611,-950.595399999994,40,2
-1612,-951.295999999994,-92,0
-1611,-950.728399999994,319,1
-1612,-950.994899999994,165,1
-1613,-951.677199999994,124,0
-1614,-952.050999999994,78,4
-1615,-952.924299999994,39,57
-1616,-953.624899999994,-93,0
-1615,-953.270699999994,182,2
-1616,-953.771599999994,149,7
-1617,-954.529899999994,126,13
-1618,-954.934899999994,101,13
-1619,-955.698099999994,36,15
-1620,-955.964599999994,-118,1
-1619,-955.379099999994,534,0
-1620,-956.048499999994,490,1
-1621,-956.870999999994,477,0
-1622,-957.534099999994,472,0
-1623,-958.194599999994,452,0
-1624,-958.777999999994,429,3
-1625,-959.542099999994,395,4
-1626,-960.238499999994,374,1
-1627,-960.611399999994,292,0
-1628,-961.016799999994,285,1
-1629,-961.289899999994,276,0
-1630,-962.079699999994,264,0
-1631,-962.889699999994,240,1
-1632,-963.356499999994,189,3
-1633,-963.810499999994,167,0
-1634,-964.411199999994,123,1
-1635,-964.784999999994,77,2
-1636,-965.220799999994,29,81
-1637,-965.593699999994,-53,1
-1636,-965.044799999994,79,5
-1637,-965.480599999994,31,37
-1638,-965.747099999993,-123,1
-1637,-965.033499999993,163,2
-1638,-965.734099999993,31,58
-1639,-966.000599999993,-123,0
-1638,-965.582499999993,83,3
-1639,-966.349599999993,49,9
-1640,-966.722499999993,-33,0
-1639,-966.522199999993,298,5
-1640,-967.106499999993,277,0
-1641,-967.926699999993,266,3
-1642,-968.362499999993,218,1
-1643,-969.044799999993,177,0
-1644,-969.745399999993,45,59
-1645,-970.212199999993,-6,2
-1644,-969.543999999994,795,1
-1645,-969.917799999993,749,3
-1646,-970.580899999993,744,0
-1647,-970.998799999993,691,3
-1648,-971.695199999994,670,3
-1649,-972.100199999993,645,2
-1650,-972.505599999993,638,0
-1651,-973.012299999994,624,2
-1652,-973.417199999994,600,0
-1653,-974.181199999994,561,9
-1654,-974.881799999994,429,1
-1655,-975.755099999993,390,0
-1656,-976.221899999994,339,7
-1657,-976.822599999993,295,4
-1658,-977.240499999994,242,1
-1659,-977.694499999993,220,0
-1660,-978.390899999994,199,2
-1661,-979.200899999993,175,1
-1662,-979.784299999993,152,5
-1663,-980.541999999993,108,1
-1664,-980.914899999993,26,66
-1665,-981.181399999993,-128,2
-1664,-980.635699999993,-23,2
-1663,-980.406899999993,513,2
-1664,-981.060699999993,508,0
-1665,-981.714499999993,503,12
-1666,-982.374999999993,483,1
-1667,-982.648099999993,474,2
-1668,-983.248799999993,430,0
-1669,-984.006499999993,386,1
-1670,-984.279599999993,377,1
-1671,-984.980199999993,245,0
-1672,-985.563599999993,222,1
-1673,-986.070299999993,208,0
-1674,-986.444099999993,162,5
-1675,-987.140499999993,141,1
-1676,-987.513399999993,59,18
-1677,-988.276599999993,-6,0
-1676,-987.592299999993,349,0
-1677,-988.046299999993,327,0
-1678,-988.514899999993,304,2
-1679,-989.335099999993,293,6
-1680,-989.601599999993,139,3
-1681,-990.365699999993,105,2
-1682,-990.770699999993,80,8
-1683,-991.452999999993,39,77
-1684,-991.825899999993,-43,2
-1683,-991.158099999993,100,1
-1684,-991.827499999993,56,52
-1685,-992.245399999993,3,0
-1684,-992.045099999993,334,1
-1685,-992.918399999993,295,4
-1686,-993.354199999993,247,4
-1687,-994.014699999993,227,2
-1688,-994.515599999993,194,0
-1689,-995.338099999993,181,3
-1690,-995.993599999993,141,0
-1691,-996.260099999993,-13,0
-1690,-995.714399999993,92,6
-1691,-996.144899999993,58,3
-1692,-996.745599999993,14,13
-1691,-995.989799999993,117,5
-1692,-996.690399999993,-15,0
-1691,-995.902899999993,294,0
-1692,-996.660599999993,250,1
-1693,-997.065499999993,226,3
-1694,-997.829599999993,192,7
-1695,-998.596699999993,158,0
-1696,-999.253799999993,141,4
-1697,-999.658699999993,117,9
-1698,-1000.41699999999,94,2
-1699,-1001.11759999999,-38,3
-1698,-1000.47499999999,130,1
-1699,-1001.15729999999,89,3
-1700,-1001.92049999999,24,21
-1699,-1001.21619999999,124,5
-1700,-1001.98019999999,85,4
-1701,-1002.38519999999,60,11
-1702,-1002.82099999999,12,13
-1701,-1002.08929999999,160,8
-1702,-1002.75329999999,141,0
-1703,-1003.62659999999,102,0
-1704,-1004.04449999999,49,2
-1705,-1004.31099999999,-105,0
-1704,-1003.76209999999,18,11
-1703,-1003.16299999999,138,4
-1704,-1003.59349999999,104,0
-1705,-1004.17689999999,81,0
-1706,-1004.55069999999,35,59
-1707,-1004.81719999999,-119,1
-1706,-1004.02969999999,190,0
-1707,-1004.79369999999,151,6
-1708,-1005.66699999999,112,1
-1709,-1006.26769999999,68,2
-1710,-1006.68559999999,15,2
-1709,-1005.97369999999,128,8
-1710,-1006.67429999999,-4,0
-1709,-1006.25619999999,202,10
-1710,-1007.02029999999,168,0
-1711,-1007.83029999999,144,6
-1712,-1008.29709999999,93,5
-1713,-1008.73289999999,45,1
-1714,-1009.10579999999,-37,2
-1713,-1008.81079999999,321,3
-1714,-1009.21579999999,296,1
-1715,-1010.07759999999,287,1
-1716,-1010.66099999999,264,3
-1717,-1011.34329999999,223,1
-1718,-1011.79729999999,201,1
-1719,-1012.17109999999,155,6
-1720,-1012.93819999999,121,0
-1721,-1013.70229999999,87,2
-1722,-1014.57559999999,48,4
-1723,-1014.99349999999,-5,4
-1722,-1014.44779999999,100,8
-1723,-1014.71429999999,-54,0
-1722,-1014.07169999999,114,5
-1723,-1014.77229999999,-18,2
-1722,-1014.35669999999,235,9
-1723,-1015.11439999999,191,7
-1724,-1015.69779999999,168,1
-1725,-1016.35489999999,151,0
-1726,-1016.80889999999,129,17
-1727,-1017.57289999999,90,1
-1728,-1018.24229999999,46,9
-1729,-1018.61609999999,0,0
-1728,-1018.26189999999,275,0
-1729,-1018.76859999999,261,4
-1730,-1019.45089999999,220,6
-1731,-1020.11489999999,201,1
-1732,-1020.71559999999,157,1
-1733,-1021.29989999999,136,5
-1734,-1021.70479999999,112,4
-1735,-1022.46309999999,89,1
-1736,-1022.86809999999,64,1
-1737,-1023.52359999999,24,20
-1738,-1023.79009999999,-130,0
-1737,-1022.99979999999,475,2
-1738,-1023.40519999999,468,1
-1739,-1024.08749999999,427,1
-1740,-1024.85069999999,362,12
-1741,-1025.54709999999,341,0
-1742,-1025.95209999999,316,0
-1743,-1026.32589999999,270,9
-1744,-1027.14609999999,259,1
-1745,-1027.72949999999,236,3
-1746,-1027.83889999999,224,2
-1747,-1028.60599999999,190,4
-1748,-1029.07459999999,167,4
-1749,-1029.49249999999,114,9
-1750,-1029.94649999999,92,0
-1751,-1030.61589999999,48,0
-1752,-1031.05169999999,0,1
-1751,-1030.31819999999,445,1
-1752,-1030.81909999999,412,2
-1753,-1031.57739999999,389,0
-1754,-1032.17809999999,345,0
-1755,-1032.94209999999,306,1
-1756,-1033.73189999999,294,4
-1757,-1034.31619999999,273,3
-1758,-1034.97669999999,253,0
-1759,-1035.38159999999,229,9
-1760,-1036.13929999999,185,1
-1761,-1036.80329999999,166,3
-1762,-1037.46039999999,149,0
-1763,-1038.22449999999,115,0
-1764,-1038.69129999999,64,0
-1765,-1039.39189999999,-68,1
-1764,-1038.71129999999,489,4
-1765,-1039.14179999999,455,1
-1766,-1039.95179999999,431,0
-1767,-1040.60729999999,391,1
-1768,-1040.98019999999,309,4
-1769,-1041.84199999999,300,3
-1770,-1042.71529999999,261,5
-1771,-1043.08819999999,179,1
-1772,-1043.85529999999,145,0
-1773,-1044.51929999999,126,0
-1774,-1045.39259999999,87,7
-1775,-1046.15029999999,43,7
-1776,-1046.41679999999,-111,0
-1775,-1045.71939999999,588,0
-1776,-1046.22029999999,555,0
-1777,-1046.68889999999,532,5
-1778,-1047.10679999999,479,9
-1779,-1047.76729999999,459,1
-1780,-1047.87669999999,447,2
-1781,-1048.34349999999,396,1
-1782,-1049.16369999999,385,1
-1783,-1049.53749999999,339,1
-1784,-1049.94249999999,314,2
-1785,-1050.21559999999,305,4
-1786,-1051.00539999999,293,5
-1787,-1051.70179999999,272,2
-1788,-1052.13759999999,224,1
-1789,-1052.73829999999,180,0
-1790,-1053.19229999999,158,2
-1791,-1053.95059999999,135,2
-1792,-1054.71379999999,70,1
-1793,-1055.14429999999,36,49
-1794,-1055.84489999999,-96,1
-1793,-1055.28829999999,185,1
-1794,-1055.79499999999,171,1
-1795,-1056.45549999999,151,0
-1796,-1057.32879999999,112,0
-1797,-1057.76459999999,64,22
-1798,-1058.52779999999,-1,0
-1797,-1057.98209999999,104,3
-1798,-1058.65149999999,60,10
-1799,-1059.02529999999,14,20
-1800,-1059.29179999999,-140,0
-1799,-1058.74289999999,-8,1
-1798,-1058.28689999999,230,0
-1799,-1058.96919999999,189,4
-1800,-1059.39969999999,155,0
-1801,-1060.09609999999,134,10
-1802,-1060.67949999999,111,1
-1803,-1061.28019999999,67,7
-1804,-1061.98079999999,-65,0
-1803,-1061.40829999999,333,10
-1804,-1062.07229999999,314,1
-1805,-1062.89479999999,301,1
-1806,-1063.39569999999,268,0
-1807,-1063.76859999999,186,0
-1808,-1064.17359999999,161,4
-1809,-1064.64039999999,110,4
-1810,-1065.05829999999,57,39
-1811,-1065.43209999999,11,11
-1810,-1064.87859999999,180,1
-1811,-1064.98799999999,168,2
-1812,-1065.42379999999,120,14
-1813,-1066.00719999999,97,10
-1814,-1066.60789999999,53,0
-1815,-1067.07469999999,2,1
-1814,-1066.38309999999,234,0
-1815,-1067.04709999999,215,7
-1816,-1067.80479999999,171,2
-1817,-1068.56799999999,106,5
-1818,-1069.22349999999,66,0
-1819,-1069.59639999999,-16,0
-1818,-1069.13999999999,325,0
-1819,-1069.40649999999,171,0
-1820,-1069.91319999999,157,4
-1821,-1070.49749999999,136,7
-1822,-1070.99839999999,103,2
-1823,-1071.41629999999,50,20
-1824,-1072.11689999999,-82,2
-1823,-1071.66219999999,78,2
-1824,-1072.09269999999,44,0
-1825,-1072.79329999999,-88,2
-1824,-1072.49829999999,270,0
-1825,-1073.08169999999,247,0
-1826,-1073.45549999999,201,0
-1827,-1073.96219999999,187,2
-1828,-1074.72619999999,148,2
-1829,-1075.48939999999,83,18
-1830,-1076.15879999999,39,15
-1831,-1076.53169999999,-43,0
-1830,-1075.86389999999,100,12
-1831,-1076.46459999999,56,35
-1832,-1076.73109999999,-98,3
-1831,-1075.89399999999,191,1
-1832,-1076.55449999999,171,8
-1833,-1076.66389999999,159,14
-1834,-1077.13069999999,108,5
-1835,-1077.89479999999,74,13
-1836,-1078.39569999999,41,32
-1837,-1078.76859999999,-41,0
-1836,-1078.31389999999,119,0
-1837,-1078.71889999999,94,1
-1838,-1079.48209999999,29,8
-1839,-1079.74859999999,-125,1
-1838,-1079.09479999999,655,0
-1839,-1079.88459999999,643,1
-1840,-1080.28949999999,619,0
-1841,-1080.94499999999,579,1
-1842,-1081.76519999999,568,1
-1843,-1082.53229999999,534,3
-1844,-1082.99909999999,483,0
-1845,-1083.59979999999,439,1
-1846,-1083.97359999999,393,1
-1847,-1084.73129999999,349,4
-1848,-1085.18529999999,327,3
-1849,-1085.88589999999,195,4
-1850,-1086.30379999999,142,7
-1851,-1086.77239999999,119,7
-1852,-1087.45469999999,78,14
-1853,-1088.32799999999,39,44
-1854,-1088.59449999999,-115,4
-1853,-1088.09839999999,33,5
-1854,-1088.79899999999,-99,0
-1853,-1088.50399999999,259,5
-1854,-1089.31399999999,235,5
-1855,-1090.10379999999,223,14
-1856,-1090.86699999999,158,0
-1857,-1091.23989999999,76,0
-1858,-1091.74079999999,43,77
-1859,-1092.44139999999,-89,1
-1858,-1091.78609999999,302,2
-1859,-1092.55009999999,263,7
-1860,-1093.24649999999,242,2
-1861,-1093.67699999999,208,4
-1862,-1094.04989999999,126,4
-1863,-1094.42369999999,80,12
-1864,-1094.84159999999,27,62
-1865,-1095.10809999999,-127,0
-1864,-1094.75769999999,72,3
-1865,-1095.52089999999,7,1
-1864,-1095.10279999999,213,1
-1865,-1095.86689999999,179,2
-1866,-1096.24069999999,133,1
-1867,-1097.00469999999,94,2
-1868,-1097.68699999999,53,3
-1869,-1098.10489999999,0,1
-1868,-1097.34909999999,103,9
-1869,-1098.04969999999,-29,0
-1868,-1097.59369999999,209,4
-1869,-1098.35139999999,165,3
-1870,-1098.93569999999,144,6
-1871,-1099.36619999999,110,15
-1872,-1099.83299999999,59,12
-1873,-1100.43369999999,15,1
-1872,-1099.93759999999,163,0
-1873,-1100.74759999999,139,0
-1874,-1101.12049999999,57,19
-1875,-1101.55629999999,9,0
-1874,-1100.84119999999,248,6
-1875,-1101.42459999999,225,1
-1876,-1102.18779999999,160,0
-1877,-1102.88419999999,139,3
-1878,-1103.54819999999,120,2
-1879,-1104.30649999999,97,4
-1880,-1104.71149999999,72,13
-1881,-1104.97799999999,-82,5
-1880,-1104.37889999999,38,49
-1881,-1104.64539999999,-116,3
-1880,-1103.96109999999,239,4
-1881,-1104.33489999999,193,0
-1882,-1104.75279999999,140,0
-1883,-1105.43509999999,99,25
-1884,-1106.20219999999,65,5
-1885,-1106.63799999999,17,5
-1884,-1105.97019999999,160,4
-1885,-1106.72789999999,116,9
-1886,-1107.19649999999,93,3
-1887,-1107.86589999999,49,56
-1888,-1108.56649999999,-83,2
-1887,-1107.77899999999,226,0
-1888,-1108.23299999999,204,2
-1889,-1108.60589999999,122,3
-1890,-1109.01089999999,97,2
-1891,-1109.44139999999,63,1
-1892,-1110.20459999999,-2,0
-1891,-1109.63699999999,409,3
-1892,-1110.45719999999,398,6
-1893,-1110.92579999999,375,0
-1894,-1111.43249999999,361,0
-1895,-1112.30579999999,322,2
-1896,-1112.90649999999,278,11
-1897,-1113.17299999999,124,6
-1898,-1113.93709999999,90,5
-1899,-1114.31089999999,44,58
-1900,-1115.07409999999,-21,0
-1899,-1114.52519999999,102,1
-1900,-1115.29229999999,68,13
-1901,-1115.66519999999,-14,0
-1900,-1114.99739999999,129,1
-1901,-1115.75569999999,106,2
-1902,-1116.51979999999,72,7
-1903,-1117.12049999999,28,57
-1904,-1117.82109999999,-104,0
-1903,-1117.23949999999,133,11
-1904,-1117.74039999999,100,0
-1905,-1118.00689999999,-54,0
-1904,-1117.77809999999,482,8
-1905,-1118.44209999999,463,2
-1906,-1119.12439999999,422,1
-1907,-1119.49819999999,376,1
-1908,-1120.09889999999,332,0
-1909,-1120.88869999999,320,3
-1910,-1121.47209999999,297,9
-1911,-1122.23039999999,274,0
-1912,-1122.89089999999,254,5
-1913,-1123.54799999999,237,9
-1914,-1123.95299999999,212,2
-1915,-1124.82629999999,173,2
-1916,-1125.23119999999,149,3
-1917,-1125.69979999999,126,7
-1918,-1126.13029999999,92,4
-1919,-1126.56609999999,44,36
-1920,-1127.32929999999,-21,4
-1919,-1127.12899999999,310,3
-1920,-1127.82959999999,178,1
-1921,-1128.59669999999,144,5
-1922,-1129.26609999999,100,0
-1923,-1129.53259999999,-54,0
-1922,-1129.14159999999,89,6
-1923,-1129.51449999999,7,0
-1922,-1128.94619999999,152,0
-1923,-1129.71029999999,118,1
-1924,-1130.29369999999,95,0
-1925,-1130.96309999999,51,3
-1926,-1131.22959999999,-103,0
-1925,-1130.44209999999,206,1
-1926,-1130.84709999999,181,4
-1927,-1131.65709999999,157,5
-1928,-1132.41539999999,134,3
-1929,-1132.82029999999,110,9
-1930,-1133.69359999999,71,0
-1931,-1134.29429999999,27,46
-1932,-1134.99489999999,-105,0
-1931,-1134.61489999999,175,1
-1932,-1135.06889999999,153,3
-1933,-1135.65319999999,132,0
-1934,-1136.33549999999,91,7
-1935,-1136.99099999999,51,21
-1936,-1137.42679999999,3,0
-1935,-1136.93069999999,151,1
-1936,-1137.30359999999,69,4
-1937,-1137.67739999999,23,5
-1936,-1136.97309999999,123,0
-1937,-1137.37809999999,98,0
-1938,-1138.14219999999,64,4
-1939,-1138.90539999999,-1,1
-1938,-1138.10969999999,685,1
-1939,-1138.38279999999,676,0
-1940,-1139.03829999999,636,4
-1941,-1139.69539999999,619,1
-1942,-1140.46249999999,585,0
-1943,-1140.89829999999,537,2
-1944,-1141.77159999999,498,1
-1945,-1142.22559999999,476,0
-1946,-1142.92199999999,455,0
-1947,-1143.39059999999,432,2
-1948,-1144.14829999999,388,2
-1949,-1144.90659999999,365,4
-1950,-1145.01599999999,353,0
-1951,-1145.38979999999,307,4
-1952,-1146.20999999999,296,3
-1953,-1146.91059999999,164,1
-1954,-1147.41149999999,131,3
-1955,-1147.99579999999,110,1
-1956,-1148.59649999999,66,7
-1957,-1149.01439999999,13,8
-1956,-1148.28269999999,161,2
-1957,-1148.95209999999,117,4
-1958,-1149.35699999999,93,16
-1959,-1149.82379999999,42,56
-1960,-1150.52439999999,-90,3
-1959,-1149.83279999999,142,0
-1960,-1150.43349999999,98,3
-1961,-1151.19749999999,59,4
-1962,-1151.66429999999,8,1
-1961,-1150.93259999999,156,3
-1962,-1151.36839999999,108,4
-1963,-1151.77339999999,83,4
-1964,-1152.03989999999,-71,0
-1963,-1151.33349999999,191,6
-1964,-1152.01579999999,150,4
-1965,-1152.59919999999,127,1
-1966,-1153.36629999999,93,4
-1967,-1153.73919999999,11,4
-1966,-1153.33379999999,209,8
-1967,-1153.91809999999,188,0
-1968,-1154.58209999999,169,0
-1969,-1155.03609999999,147,1
-1970,-1155.44099999999,123,2
-1971,-1155.87149999999,89,7
-1972,-1156.52699999999,49,67
-1973,-1157.29019999999,-16,0
-1972,-1156.78919999999,225,1
-1973,-1157.45319999999,206,1
-1974,-1157.88899999999,158,5
-1975,-1158.29389999999,134,4
-1976,-1158.56039999999,-20,0
-1975,-1158.10439999999,218,1
-1976,-1158.50939999999,193,3
-1977,-1159.27649999999,159,2
-1978,-1160.03419999999,115,15
-1979,-1160.50099999999,64,11
-1980,-1160.87389999999,-18,1
-1979,-1160.51969999999,257,2
-1980,-1160.89349999999,211,0
-1981,-1161.47779999999,190,0
-1982,-1162.35109999999,151,4
-1983,-1163.05169999999,19,3
-1982,-1162.50599999999,124,0
-1983,-1162.97459999999,101,3
-1984,-1163.73869999999,67,10
-1985,-1164.15659999999,14,4
-1984,-1163.70189999999,174,0
-1985,-1164.30259999999,130,12
-1986,-1165.06029999999,86,7
-1987,-1165.43409999999,40,48
-1988,-1165.80699999999,-42,1
-1987,-1165.60669999999,289,5
-1988,-1166.37069999999,250,2
-1989,-1167.04009999999,206,7
-1990,-1167.69719999999,189,4
-1991,-1168.46039999999,124,7
-1992,-1169.11589999999,84,2
-1993,-1169.38239999999,-70,0
-1992,-1168.59579999999,127,2
-1993,-1169.29639999999,-5,1
-1992,-1168.66029999999,341,4
-1993,-1169.35669999999,320,0
-1994,-1169.82529999999,297,0
-1995,-1170.27929999999,275,3
-1996,-1170.68429999999,250,3
-1997,-1171.08919999999,226,1
-1998,-1171.77149999999,185,8
-1999,-1172.35489999999,162,1
-2000,-1173.11899999999,128,9
-2001,-1173.80129999999,87,4
-2002,-1174.21919999999,34,18
-2003,-1174.48569999999,-120,0
-2002,-1173.69909999999,77,23
-2003,-1174.07289999999,31,9
-2004,-1174.77349999999,-101,1
-2003,-1174.41929999999,174,2
-2004,-1175.00359999999,153,6
-2005,-1175.76759999999,114,8
-2006,-1176.23619999999,91,3
-2007,-1176.60909999999,9,0
-2006,-1175.87739999999,157,0
-2007,-1176.53289999999,117,1
-2008,-1176.98689999999,95,5
-2009,-1177.86019999999,56,24
-2010,-1178.62339999999,-9,0
-2009,-1177.89099999999,362,4
-2010,-1178.65809999999,328,0
-2011,-1179.46809999999,304,10
-2012,-1180.15039999999,263,3
-2013,-1180.81439999999,244,7
-2014,-1181.32109999999,230,2
-2015,-1182.07939999999,207,0
-2016,-1182.45229999999,125,2
-2017,-1183.15289999999,-7,0
-2016,-1182.63859999999,529,0
-2017,-1183.06909999999,495,7
-2018,-1183.93089999999,486,1
-2019,-1184.36669999999,438,0
-2020,-1184.95099999999,417,7
-2021,-1185.36889999999,364,3
-2022,-1186.06529999999,343,0
-2023,-1186.93859999999,304,4
-2024,-1187.60799999999,260,1
-2025,-1188.37199999999,221,2
-2026,-1188.77699999999,196,1
-2027,-1188.88639999999,184,0
-2028,-1189.15289999999,30,110
-2029,-1189.41939999999,-124,1
-2028,-1188.62369999999,562,3
-2029,-1189.20799999999,541,4
-2030,-1189.97209999999,507,0
-2031,-1190.37709999999,482,1
-2032,-1190.75089999999,436,4
-2033,-1191.16879999999,383,0
-2034,-1191.67549999999,369,3
-2035,-1192.46529999999,357,2
-2036,-1193.28779999999,344,0
-2037,-1193.88849999999,300,2
-2038,-1194.57079999999,259,0
-2039,-1195.22789999999,242,1
-2040,-1195.81129999999,219,2
-2041,-1196.51189999999,87,4
-2042,-1196.94239999999,53,31
-2043,-1197.40919999999,2,1
-2042,-1197.12849999999,305,6
-2043,-1197.40159999999,296,3
-2044,-1197.85559999999,274,0
-2045,-1198.61389999999,251,1
-2046,-1199.37799999999,217,4
-2047,-1199.81379999999,169,6
-2048,-1200.39809999999,148,0
-2049,-1201.05859999999,128,0
-2050,-1201.93189999999,89,1
-2051,-1202.68959999999,45,29
-2052,-1202.95609999999,-109,2
-2051,-1202.40719999999,14,0
-2050,-1201.95249999999,174,33
-2051,-1202.38299999999,140,0
-2052,-1203.06529999999,99,8
-2053,-1203.76589999999,-33,1
-2052,-1203.12729999999,343,0
-2053,-1203.53229999999,318,5
-2054,-1204.20169999999,274,6
-2055,-1204.78509999999,251,0
-2056,-1205.59509999999,227,2
-2057,-1206.29149999999,206,4
-2058,-1207.05469999999,141,2
-2059,-1207.42759999999,59,3
-2060,-1207.80139999999,13,23
-2059,-1207.01479999999,210,3
-2060,-1207.12419999999,198,2
-2061,-1207.93419999999,174,2
-2062,-1208.51849999999,153,0
-2063,-1208.98709999999,130,0
-2064,-1209.40499999999,77,35
-2065,-1210.06049999999,37,26
-2066,-1210.32699999999,-117,2
-2065,-1209.90889999999,89,6
-2066,-1210.28269999999,43,22
-2067,-1210.98329999999,-89,0
-2066,-1210.46789999999,377,3
-2067,-1211.22619999999,354,1
-2068,-1211.89019999999,335,6
-2069,-1212.55069999999,315,0
-2070,-1213.15139999999,271,5
-2071,-1213.94119999999,259,5
-2072,-1214.31499999999,213,8
-2073,-1214.98439999999,169,0
-2074,-1215.63989999999,129,3
-2075,-1216.44989999999,105,2
-2076,-1217.20759999999,61,3
-2077,-1217.67439999999,10,5
-2076,-1216.83729999999,299,0
-2077,-1217.65979999999,286,3
-2078,-1218.06479999999,261,2
-2079,-1218.93809999999,222,2
-2080,-1219.59519999999,205,4
-2081,-1220.29159999999,184,2
-2082,-1220.79249999999,151,7
-2083,-1221.47479999999,110,1
-2084,-1222.17539999999,-22,0
-2083,-1221.59759999999,374,1
-2084,-1222.00249999999,350,0
-2085,-1222.45649999999,328,0
-2086,-1222.82939999999,246,5
-2087,-1223.58769999999,223,0
-2088,-1224.35179999999,189,8
-2089,-1225.11579999999,150,0
-2090,-1225.38229999999,-4,8
-2089,-1224.58659999999,682,0
-2090,-1225.16999999999,659,9
-2091,-1225.93319999999,594,0
-2092,-1226.36899999999,546,1
-2093,-1226.78689999999,493,1
-2094,-1226.89629999999,481,3
-2095,-1227.30169999999,474,3
-2096,-1228.06879999999,440,4
-2097,-1228.82649999999,396,4
-2098,-1229.52709999999,264,0
-2099,-1229.79359999999,110,5
-2100,-1230.66689999999,71,2
-2101,-1231.43009999999,6,0
-2100,-1230.86249999999,417,15
-2101,-1231.26789999999,410,0
-2102,-1231.92839999999,390,0
-2103,-1232.35889999999,356,4
-2104,-1233.05529999999,335,2
-2105,-1233.50929999999,313,0
-2106,-1233.97609999999,262,0
-2107,-1234.74019999999,228,2
-2108,-1235.14509999999,204,0
-2109,-1235.74579999999,160,3
-2110,-1236.42809999999,119,19
-2111,-1236.83309999999,94,5
-2112,-1237.48859999999,54,33
-2113,-1237.86149999999,-28,0
-2112,-1237.48149999999,252,1
-2113,-1238.29149999999,228,1
-2114,-1239.05549999999,189,4
-2115,-1239.49129999999,141,0
-2116,-1239.90919999999,88,5
-2117,-1240.28299999999,42,5
-2118,-1240.98359999999,-90,0
-2117,-1240.27929999999,10,4
-2116,-1239.56419999999,249,6
-2117,-1239.99469999999,215,2
-2118,-1240.65869999999,196,3
-2119,-1241.41699999999,173,5
-2120,-1242.07249999999,133,2
-2121,-1242.74189999999,89,5
-2122,-1243.42419999999,48,0
-2123,-1244.18739999999,-17,1
-2122,-1243.61909999999,128,2
-2123,-1244.08589999999,77,11
-2124,-1244.45969999999,31,40
-2125,-1244.72619999999,-123,3
-2124,-1244.17729999999,0,4
-2123,-1243.59569999999,237,0
-2124,-1244.35979999999,203,3
-2125,-1244.82839999999,180,16
-2126,-1245.58609999999,136,1
-2127,-1246.35319999999,102,14
-2128,-1246.95389999999,58,3
-2129,-1247.71709999999,-7,1
-2128,-1246.99919999999,118,1
-2129,-1247.76319999999,79,2
-2130,-1248.19369999999,45,70
-2131,-1248.89429999999,-87,0
-2130,-1248.16259999999,61,7
-2131,-1248.62939999999,10,3
-2130,-1248.08369999999,115,1
-2131,-1248.84139999999,71,4
-2132,-1249.21519999999,25,6
-2131,-1248.45939999999,128,1
-2132,-1248.96029999999,95,8
-2133,-1249.22679999999,-59,0
-2132,-1248.59069999999,287,0
-2133,-1249.24619999999,247,4
-2134,-1249.66409999999,194,1
-2135,-1249.93059999999,40,4
-2136,-1250.30349999999,-42,2
-2135,-1249.71799999999,610,5
-2136,-1250.42899999999,605,0
-2137,-1251.12539999999,584,2
-2138,-1251.57939999999,562,0
-2139,-1252.34339999999,523,1
-2140,-1252.81199999999,500,2
-2141,-1253.31289999999,467,2
-2142,-1254.07059999999,423,5
-2143,-1254.73459999999,404,0
-2144,-1255.13949999999,380,1
-2145,-1255.89779999999,357,1
-2146,-1256.66489999999,323,0
-2147,-1257.13169999999,272,0
-2148,-1257.95419999999,259,0
-2149,-1258.53759999999,236,4
-2150,-1258.96809999999,202,5
-2151,-1259.62359999999,162,3
-2152,-1260.22429999999,118,0
-2153,-1260.66009999999,70,33
-2154,-1261.32949999999,26,16
-2153,-1260.61759999999,139,2
-2154,-1261.20189999999,118,0
-2155,-1261.88419999999,77,1
-2156,-1262.58479999999,-55,0
-2155,-1262.28979999999,303,9
-2156,-1262.79649999999,289,6
-2157,-1263.60649999999,265,2
-2158,-1264.07329999999,214,3
-2159,-1264.18269999999,202,1
-2160,-1264.55559999999,120,13
-2161,-1264.92939999999,74,1
-2162,-1265.61169999999,33,84
-2163,-1265.87819999999,-121,3
-2162,-1265.08249999999,565,1
-2163,-1265.58339999999,532,0
-2164,-1266.45669999999,493,5
-2165,-1267.15729999999,361,3
-2166,-1267.94709999999,349,1
-2167,-1268.35199999999,325,1
-2168,-1268.72579999999,279,2
-2169,-1269.30919999999,256,3
-2170,-1269.90989999999,212,0
-2171,-1270.67399999999,178,1
-2172,-1271.33449999999,158,4
-2173,-1271.83539999999,125,2
-2174,-1272.59939999999,86,3
-2175,-1273.35709999999,42,49
-2176,-1273.72999999999,-40,0
-2175,-1273.14839999999,197,0
-2176,-1273.91159999999,132,9
-2177,-1274.37839999999,81,0
-2178,-1275.07899999999,-51,3
-2177,-1274.24189999999,238,0
-2178,-1274.35129999999,226,0
-2179,-1275.11839999999,192,0
-2180,-1275.38489999999,38,82
-2181,-1275.75779999999,-44,2
-2180,-1275.37779999999,236,6
-2181,-1276.14189999999,202,8
-2182,-1276.60869999999,151,1
-2183,-1277.37189999999,86,0
-2184,-1277.80769999999,38,51
-2185,-1278.50829999999,-94,4
-2184,-1278.26419999999,455,0
-2185,-1278.92819999999,436,0
-2186,-1279.62459999999,415,10
-2187,-1280.20889999999,394,2
-2188,-1280.89119999999,353,4
-2189,-1281.26499999999,307,4
-2190,-1281.53149999999,153,0
-2191,-1282.29549999999,114,0
-2192,-1282.76229999999,63,91
-2193,-1283.46289999999,-69,2
-2192,-1282.73119999999,79,3
-2193,-1283.14909999999,26,9
-2192,-1282.39329999999,129,2
-2193,-1282.76619999999,47,98
-2194,-1283.46679999999,-85,1
-2193,-1282.91789999999,47,14
-2194,-1283.18439999999,-107,4
-2193,-1282.52379999999,203,0
-2194,-1282.92869999999,179,3
-2195,-1283.30159999999,97,22
-2196,-1284.06569999999,63,29
-2197,-1284.43859999999,-19,2
-2196,-1283.84859999999,243,4
-2197,-1284.31539999999,192,0
-2198,-1284.97589999999,172,5
-2199,-1285.38089999999,147,2
-2200,-1286.08149999999,15,1
-2199,-1285.34979999999,163,0
-2200,-1285.78559999999,115,5
-2201,-1286.15939999999,69,10
-2202,-1286.42589999999,-85,0
-2201,-1285.72159999999,15,2
-2200,-1284.96579999999,118,7
-2201,-1285.72899999999,53,34
-2202,-1286.14689999999,0,1
-2201,-1285.56909999999,396,0
-2202,-1286.06999999999,363,1
-2203,-1286.67069999999,319,1
-2204,-1287.42839999999,275,5
-2205,-1287.83329999999,251,4
-2206,-1288.64329999999,227,4
-2207,-1289.14999999999,213,5
-2208,-1289.52289999999,131,2
-2209,-1290.28699999999,97,0
-2210,-1290.66079999999,51,17
-2211,-1291.36139999999,-81,3
-2210,-1290.97039999999,62,14
-2211,-1291.43719999999,11,3
-2210,-1290.76939999999,154,3
-2211,-1291.42989999999,134,0
-2212,-1291.83489999999,109,0
-2213,-1292.26539999999,75,13
-2214,-1292.70119999999,27,15
-2213,-1292.15549999999,132,8
-2214,-1292.82489999999,88,6
-2215,-1293.24279999999,35,7
-2216,-1293.50929999999,-119,3
-2215,-1292.92769999999,118,7
-2216,-1293.52839999999,74,11
-2217,-1294.22899999999,-58,1
-2216,-1293.77259999999,283,0
-2217,-1294.17749999999,259,4
-2218,-1294.61329999999,211,3
-2219,-1295.37159999999,188,11
-2220,-1295.74539999999,142,4
-2221,-1296.50949999999,108,1
-2222,-1297.27659999999,74,3
-2223,-1297.74339999999,23,10
-2222,-1296.98759999999,126,1
-2223,-1297.41809999999,92,1
-2224,-1298.08749999999,48,38
-2225,-1298.35399999999,-106,1
-2224,-1297.56649999999,203,4
-2225,-1298.23049999999,184,4
-2226,-1298.81389999999,161,1
-2227,-1299.39819999999,140,2
-2228,-1300.16219999999,101,4
-2229,-1300.53509999999,19,33
-2228,-1299.81719999999,144,6
-2229,-1300.28399999999,93,4
-2230,-1300.65779999999,47,2
-2231,-1301.35839999999,-85,0
-2230,-1300.69059999999,58,14
-2231,-1300.95709999999,-96,0
-2230,-1300.22539999999,52,22
-2231,-1300.59829999999,-30,1
-2230,-1300.24409999999,245,2
-2231,-1300.84479999999,201,9
-2232,-1301.60309999999,178,1
-2233,-1302.36629999999,113,9
-2234,-1303.13029999999,74,11
-2235,-1303.56609999999,26,13
-2234,-1302.81029999999,129,0
-2235,-1303.49259999999,88,5
-2236,-1304.36589999999,49,36
-2237,-1305.06649999999,-83,0
-2236,-1304.64839999999,123,2
-2237,-1305.40609999999,79,0
-2238,-1305.87289999999,28,8
-2239,-1306.13939999999,-126,0
-2238,-1305.47879999999,184,0
-2239,-1305.90929999999,150,3
-2240,-1306.60569999999,129,1
-2241,-1307.10659999999,96,0
-2242,-1307.87069999999,62,9
-2243,-1308.24359999999,-20,0
-2242,-1307.67599999999,391,4
-2243,-1308.27669999999,347,7
-2244,-1308.86099999999,326,6
-2245,-1309.62419999999,261,2
-2246,-1310.28469999999,241,1
-2247,-1310.70259999999,188,3
-2248,-1311.28599999999,165,2
-2249,-1311.65979999999,119,6
-2250,-1312.42379999999,80,23
-2251,-1312.79669999999,-2,1
-2250,-1312.10509999999,230,0
-2251,-1312.54089999999,182,0
-2252,-1313.35089999999,158,1
-2253,-1314.01139999999,138,12
-2254,-1314.44189999999,104,13
-2255,-1315.09739999999,64,14
-2256,-1315.86059999999,-1,0
-2255,-1315.06489999999,685,0
-2256,-1315.74719999999,644,0
-2257,-1316.21399999999,593,5
-2258,-1316.87799999999,574,8
-2259,-1317.69819999999,563,2
-2260,-1318.11609999999,510,1
-2261,-1318.48989999999,464,1
-2262,-1319.19049999999,332,2
-2263,-1319.98029999999,320,1
-2264,-1320.74439999999,286,0
-2265,-1321.51149999999,252,2
-2266,-1322.01819999999,238,3
-2267,-1322.78219999999,199,2
-2268,-1323.43929999999,182,0
-2269,-1324.19759999999,159,1
-2270,-1324.86699999999,115,20
-2271,-1325.13349999999,-39,0
-2270,-1324.45289999999,518,0
-2271,-1324.85789999999,493,1
-2272,-1324.96729999999,481,1
-2273,-1325.43589999999,458,0
-2274,-1326.03659999999,414,0
-2275,-1326.90989999999,375,16
-2276,-1327.69969999999,363,7
-2277,-1328.07349999999,317,0
-2278,-1328.73749999999,298,3
-2279,-1329.33819999999,254,0
-2280,-1330.02049999999,213,1
-2281,-1330.72109999999,81,10
-2282,-1330.98759999999,-73,0
-2281,-1330.33719999999,157,2
-2282,-1330.77299999999,109,0
-2283,-1331.20349999999,75,15
-2284,-1331.96119999999,31,51
-2283,-1331.20539999999,134,0
-2284,-1331.61039999999,109,2
-2285,-1332.37439999999,70,9
-2286,-1333.13759999999,5,0
-2285,-1332.40409999999,450,4
-2286,-1332.85809999999,428,8
-2287,-1333.61579999999,384,1
-2288,-1334.03369999999,331,4
-2289,-1334.54039999999,317,7
-2290,-1335.41369999999,278,3
-2291,-1336.17769999999,239,0
-2292,-1336.94479999999,205,0
-2293,-1337.70889999999,171,0
-2294,-1338.40529999999,150,0
-2295,-1338.90619999999,117,8
-2296,-1339.34199999999,69,18
-2297,-1339.71489999999,-13,2
-2296,-1339.51459999999,318,2
-2297,-1339.62399999999,306,5
-2298,-1339.99779999999,260,4
-2299,-1340.75609999999,237,0
-2300,-1341.02259999999,83,4
-2301,-1341.62329999999,39,18
-2302,-1342.32389999999,-93,3
-2301,-1341.48679999999,196,5
-2302,-1342.07109999999,175,4
-2303,-1342.47599999999,151,7
-2304,-1342.94279999999,100,1
-2305,-1343.70599999999,35,44
-2306,-1344.07889999999,-47,1
-2305,-1343.52229999999,234,3
-2306,-1343.99089999999,211,2
-2307,-1344.49179999999,178,1
-2308,-1344.89679999999,153,1
-2309,-1345.31469999999,100,3
-2310,-1346.07869999999,61,14
-2311,-1346.51449999999,13,11
-2310,-1346.01839999999,161,0
-2311,-1346.28489999999,7,3
-2310,-1345.71659999999,152,1
-2311,-1346.47429999999,108,9
-2312,-1346.90479999999,74,1
-2313,-1347.60539999999,-58,2
-2312,-1347.09109999999,478,0
-2313,-1347.88089999999,466,3
-2314,-1348.55029999999,422,2
-2315,-1349.21429999999,403,8
-2316,-1350.02429999999,379,2
-2317,-1350.49109999999,328,4
-2318,-1350.94509999999,306,8
-2319,-1351.81839999999,267,4
-2320,-1352.58249999999,233,4
-2321,-1353.01299999999,199,10
-2322,-1353.71359999999,67,4
-2323,-1354.13149999999,14,0
-2322,-1353.56319999999,159,0
-2323,-1354.24549999999,118,15
-2324,-1354.71229999999,67,27
-2325,-1355.47549999999,2,0
-2324,-1354.87639999999,122,5
-2325,-1355.64349999999,88,1
-2326,-1356.01729999999,42,16
-2327,-1356.39019999999,-40,0
-2326,-1355.59449999999,646,4
-2327,-1356.45629999999,637,0
-2328,-1357.27649999999,626,4
-2329,-1357.54299999999,472,0
-2330,-1357.94799999999,447,2
-2331,-1358.71199999999,408,8
-2332,-1359.14779999999,360,1
-2333,-1359.73209999999,339,1
-2334,-1360.48979999999,295,6
-2335,-1361.27959999999,283,4
-2336,-1362.04669999999,249,6
-2337,-1362.63009999999,226,3
-2338,-1363.06059999999,192,2
-2339,-1363.64489999999,171,8
-2340,-1364.40809999999,106,1
-2341,-1365.00879999999,62,28
-2342,-1365.44459999999,14,3
-2341,-1364.72669999999,139,0
-2342,-1365.10049999999,93,12
-2343,-1365.51839999999,40,5
-2344,-1365.78489999999,-114,0
-2343,-1365.36929999999,139,0
-2344,-1366.03869999999,95,10
-2345,-1366.73929999999,-37,0
-2344,-1366.00689999999,334,1
-2345,-1366.77089999999,295,1
-2346,-1367.58089999999,271,0
-2347,-1368.24139999999,251,3
-2348,-1368.99909999999,207,0
-2349,-1369.65619999999,190,6
-2350,-1370.15709999999,157,2
-2351,-1370.83939999999,116,9
-2352,-1371.71269999999,77,2
-2353,-1372.08559999999,-5,1
-2352,-1371.32979999999,98,7
-2353,-1371.79659999999,47,7
-2354,-1372.16949999999,-35,1
-2353,-1371.67969999999,174,1
-2354,-1372.36199999999,133,2
-2355,-1373.03139999999,89,1
-2356,-1373.44929999999,36,21
-2357,-1374.14989999999,-96,0
-2356,-1373.76989999999,184,1
-2357,-1374.53389999998,145,15
-2358,-1374.98789999998,123,5
-2359,-1375.86119999998,84,18
-2360,-1376.46189999998,40,8
-2361,-1376.72839999998,-114,0
-2360,-1376.23229999998,34,98
-2361,-1376.49879999998,-120,0
-2360,-1376.14839999998,79,9
-2361,-1376.61519999998,28,11
-2362,-1377.31579999998,-104,1
-2361,-1376.59789999998,21,1
-2360,-1376.04899999998,144,1
-2361,-1376.47949999998,110,5
-2362,-1376.89739999998,57,0
-2363,-1377.27029999998,-25,0
-2362,-1376.70269999998,386,4
-2363,-1377.28609999998,363,1
-2364,-1377.87039999998,342,0
-2365,-1378.37129999998,309,0
-2366,-1379.18129999998,285,6
-2367,-1379.86359999998,244,0
-2368,-1380.33219999998,221,5
-2369,-1381.00159999998,177,0
-2370,-1381.66209999998,157,9
-2371,-1382.24639999998,136,1
-2372,-1382.67689999998,102,2
-2373,-1383.33239999998,62,14
-2374,-1383.70529999998,-20,1
-2373,-1383.13699999998,125,1
-2374,-1383.54199999998,100,0
-2375,-1384.00879999998,49,48
-2376,-1384.70939999998,-83,0
-2375,-1384.29379999998,170,4
-2376,-1385.05699999998,105,2
-2377,-1385.49279999998,57,32
-2378,-1385.75929999998,-97,0
-2377,-1384.97269999998,100,9
-2378,-1385.57339999998,56,61
-2379,-1385.94629999998,-26,4
-2378,-1385.43199999998,510,2
-2379,-1385.80579999998,464,4
-2380,-1386.46289999998,447,7
-2381,-1387.12689999998,428,4
-2382,-1387.53179999998,404,4
-2383,-1388.29499999998,339,0
-2384,-1388.71289999998,286,0
-2385,-1389.29719999998,265,6
-2386,-1389.76399999998,214,0
-2387,-1390.41949999998,174,3
-2388,-1390.68599999998,20,4
-2387,-1389.98169999998,120,2
-2388,-1390.74879999998,86,6
-2389,-1391.44939999998,-46,1
-2388,-1391.22059999998,490,3
-2389,-1391.80399999998,467,2
-2390,-1392.25799999998,445,1
-2391,-1393.01569999998,401,12
-2392,-1393.87749999998,392,7
-2393,-1394.57809999998,260,7
-2394,-1394.95189999998,214,4
-2395,-1395.42049999998,191,5
-2396,-1396.08989999998,147,0
-2397,-1396.85389999998,108,2
-2398,-1397.50939999998,68,6
-2399,-1397.88229999998,-14,2
-2398,-1397.22739999998,278,0
-2399,-1397.90969999998,237,2
-2400,-1398.67289999998,172,6
-2401,-1399.36929999998,151,2
-2402,-1399.83609999998,100,12
-2403,-1400.59379999998,56,18
-2404,-1400.86029999998,-98,1
-2403,-1400.29269999998,313,0
-2404,-1400.95319999998,293,4
-2405,-1401.53749999998,272,4
-2406,-1401.95539999998,219,0
-2407,-1402.06479999998,207,2
-2408,-1402.51879999998,185,2
-2409,-1402.92379999998,160,2
-2410,-1403.68789999998,126,12
-2411,-1404.28859999998,82,9
-2412,-1404.66149999998,0,1
-2411,-1404.00769999998,780,3
-2412,-1404.88099999998,741,2
-2413,-1405.31149999998,707,0
-2414,-1405.91219999998,663,2
-2415,-1406.33009999998,610,2
-2416,-1406.99059999998,590,0
-2417,-1407.45919999998,567,0
-2418,-1408.12859999998,523,0
-2419,-1408.99039999998,514,0
-2420,-1409.74869999998,491,0
-2421,-1410.33209999998,468,3
-2422,-1410.60519999998,459,0
-2423,-1411.01019999998,434,1
-2424,-1411.83039999998,423,12
-2425,-1412.59449999998,389,4
-2426,-1413.17879999998,368,0
-2427,-1413.83589999998,351,0
-2428,-1414.62569999998,339,1
-2429,-1414.73509999998,327,2
-2430,-1415.17089999998,279,4
-2431,-1415.85319999998,238,2
-2432,-1416.61639999998,173,15
-2433,-1417.02129999998,149,9
-2434,-1417.72189999998,17,2
-2433,-1417.17619999998,122,5
-2434,-1417.54999999998,76,33
-2435,-1417.81649999998,-78,1
-2434,-1417.57239999998,471,2
-2435,-1418.27299999998,339,0
-2436,-1418.74159999998,316,2
-2437,-1419.15949999998,263,2
-2438,-1419.91719999998,219,3
-2439,-1420.34769999998,185,0
-2440,-1421.01709999998,141,6
-2441,-1421.38999999998,59,100
-2442,-1422.15319999998,-6,0
-2441,-1421.48499999998,795,2
-2442,-1422.18139999998,774,7
-2443,-1422.78209999998,730,1
-2444,-1423.54039999998,707,0
-2445,-1424.20349999998,702,0
-2446,-1424.60889999998,695,1
-2447,-1425.30529999998,674,6
-2448,-1425.57839999998,665,7
-2449,-1426.01419999998,617,0
-2450,-1426.77739999998,552,1
-2451,-1427.45969999998,511,2
-2452,-1427.91369999998,489,1
-2453,-1428.58309999998,445,4
-2454,-1428.95689999998,399,3
-2455,-1429.37479999998,346,1
-2456,-1429.95909999998,325,3
-2457,-1430.46579999998,311,10
-2458,-1430.73229999998,157,8
-2459,-1431.23319999998,124,9
-2460,-1431.60609999998,42,50
-2461,-1432.30669999998,-90,0
-2460,-1431.62239999998,265,0
-2461,-1432.38639999998,226,1
-2462,-1432.79139999998,201,1
-2463,-1433.45539999998,182,5
-2464,-1434.05609999998,138,0
-2465,-1434.81929999998,73,11
-2466,-1435.19219999998,-9,0
-2465,-1434.83799999998,266,1
-2466,-1435.30479999998,215,3
-2467,-1435.80569999998,182,18
-2468,-1436.56969999998,143,5
-2469,-1436.97469999998,118,0
-2470,-1437.41049999998,70,1
-2471,-1438.11109999998,-62,1
-2470,-1437.54349999998,349,1
-2471,-1437.97399999998,315,1
-2472,-1438.79649999998,302,4
-2473,-1439.17029999998,256,3
-2474,-1439.85259999998,215,0
-2475,-1440.11909999998,61,55
-2476,-1440.53699999998,8,0
-2475,-1439.96449999998,406,6
-2476,-1440.72279999998,383,0
-2477,-1441.48989999998,349,5
-2478,-1442.09059999998,305,2
-2479,-1442.78699999998,284,1
-2480,-1443.16079999998,238,2
-2481,-1443.81629999998,198,9
-2482,-1444.23419999998,145,6
-2483,-1444.70279999998,122,0
-2484,-1445.13859999998,74,61
-2485,-1445.40509999998,-80,4
-2484,-1444.80599999998,40,28
-2485,-1445.50659999998,-92,5
-2484,-1444.82229999998,263,0
-2485,-1445.48279999998,243,2
-2486,-1445.91329999998,209,3
-2487,-1446.57729999998,190,6
-2488,-1446.98229999998,165,1
-2489,-1447.45089999998,142,7
-2490,-1448.15149999998,10,0
-2489,-1447.50109999998,240,9
-2490,-1447.90599999998,216,3
-2491,-1448.57539999998,172,8
-2492,-1449.17609999998,128,0
-2493,-1449.61189999998,80,2
-2494,-1450.37509999998,15,3
-2493,-1449.87899999998,163,9
-2494,-1450.34579999998,112,0
-2495,-1450.76369999998,59,17
-2496,-1451.03019999998,-95,2
-2495,-1450.51589999998,441,1
-2496,-1451.27359999998,397,0
-2497,-1451.85789999998,376,0
-2498,-1452.36459999998,362,7
-2499,-1453.17459999998,338,1
-2500,-1453.93859999998,299,0
-2501,-1454.52199999998,276,1
-2502,-1455.28029999998,253,0
-2503,-1455.78119999998,220,16
-2504,-1456.54829999998,186,5
-2505,-1457.42159999998,147,3
-2506,-1457.82659999998,122,15
-2507,-1458.49599999998,78,2
-2508,-1458.91389999998,25,7
-2507,-1458.19599999998,150,8
-2508,-1458.89659999998,18,1
-2507,-1458.50559999998,161,3
-2508,-1459.18789999998,120,20
-2509,-1459.95109999998,55,1
-2510,-1460.32399999998,-27,2
-2509,-1459.67359999998,203,2
-2510,-1460.10409999998,169,2
-2511,-1460.80049999998,148,14
-2512,-1461.56459999998,114,20
-2513,-1461.93839999998,68,2
-2514,-1462.20489999998,-86,3
-2513,-1461.62329999998,151,2
-2514,-1462.38099999998,107,1
-2515,-1462.81679999998,59,48
-2516,-1463.51739999998,-73,6
-2515,-1463.22239999998,285,0
-2516,-1463.88639999998,266,7
-2517,-1464.64959999998,201,1
-2518,-1465.30509999998,161,0
-2519,-1465.67799999998,79,9
-2520,-1466.27869999998,35,10
-2521,-1466.54519999998,-119,3
-2520,-1465.89139999998,661,2
-2521,-1466.00079999998,649,8
-2522,-1466.81079999998,625,2
-2523,-1467.47129999998,605,1
-2524,-1468.15359999998,564,5
-2525,-1468.58939999998,516,2
-2526,-1469.28579999998,495,0
-2527,-1469.69069999998,471,6
-2528,-1470.51089999998,460,3
-2529,-1470.97769999998,409,0
-2530,-1471.73539999998,365,0
-2531,-1472.20399999998,342,9
-2532,-1472.62189999998,289,2
-2533,-1472.73129999998,277,0
-2534,-1473.38839999998,260,0
-2535,-1474.15159999998,195,0
-2536,-1474.62019999998,172,10
-2537,-1475.30249999998,131,2
-2538,-1475.73829999998,83,45
-2539,-1476.15619999998,30,8
-2538,-1475.44429999998,143,5
-2539,-1476.20839999998,109,11
-2540,-1476.87779999998,65,3
-2541,-1477.14429999998,-89,4
-2540,-1476.58769999998,192,5
-2541,-1476.96059999998,110,1
-2542,-1477.66119999998,-22,2
-2541,-1477.08339999998,374,2
-2542,-1477.68409999998,330,1
-2543,-1478.55739999998,291,5
-2544,-1479.14079999998,268,2
-2545,-1479.89909999998,245,2
-2546,-1480.55959999998,225,4
-2547,-1481.02639999998,174,0
-2548,-1481.70869999998,133,6
-2549,-1482.11359999998,109,3
-2550,-1482.61449999998,76,6
-2551,-1482.88099999998,-78,4
-2550,-1482.04309999998,1077,1
-2551,-1482.51169999998,1054,14
-2552,-1482.97849999998,1003,1
-2553,-1483.38349999998,978,0
-2554,-1484.14749999998,939,1
-2555,-1484.55289999998,932,2
-2556,-1484.82599999998,923,3
-2557,-1485.58369999998,879,8
-2558,-1486.24419999998,859,0
-2559,-1487.00739999998,794,5
-2560,-1487.67139999998,775,0
-2561,-1487.95079999998,770,1
-2562,-1488.60629999998,730,4
-2563,-1489.41629999998,706,1
-2564,-1490.27809999998,697,0
-2565,-1490.69599999998,644,0
-2566,-1490.80539999998,632,3
-2567,-1491.24119999998,584,4
-2568,-1491.69519999998,562,0
-2569,-1492.06899999998,516,2
-2570,-1492.65329999998,495,0
-2571,-1493.32269999998,451,3
-2572,-1493.69559999998,369,6
-2573,-1494.46269999998,335,0
-2574,-1495.22099999998,312,3
-2575,-1495.65149999998,278,0
-2576,-1496.52479999998,239,0
-2577,-1497.22539999998,107,26
-2578,-1497.64329999998,54,68
-2579,-1497.90979999998,-100,2
-2578,-1497.49419999998,153,3
-2579,-1497.92999999998,105,7
-2580,-1498.69319999998,40,11
-2581,-1499.06609999998,-42,0
-2580,-1498.50949999998,239,2
-2581,-1499.01619999998,225,2
-2582,-1499.61689999998,181,3
-2583,-1500.27739999998,161,10
-2584,-1500.97799999998,29,1
-2583,-1500.26609999998,142,5
-2584,-1501.13939999998,103,17
-2585,-1501.74009999998,59,45
-2586,-1502.11299999998,-23,0
-2585,-1501.86889999998,526,0
-2586,-1502.63289999998,487,2
-2587,-1503.30229999998,443,1
-2588,-1503.80319999998,410,5
-2589,-1504.56729999998,376,3
-2590,-1504.99779999998,342,0
-2591,-1505.66179999998,323,0
-2592,-1506.42499999998,258,5
-2593,-1507.12559999998,126,40
-2594,-1507.80789999998,85,3
-2595,-1508.07439999998,-69,0
-2594,-1507.36799999998,193,0
-2595,-1507.80379999998,145,3
-2596,-1508.48609999998,104,13
-2597,-1509.18669999998,-28,5
-2596,-1508.34879999998,1127,1
-2597,-1508.75379999998,1102,3
-2598,-1509.26049999998,1088,4
-2599,-1510.12229999998,1079,1
-2600,-1510.70569999998,1056,1
-2601,-1510.81509999998,1044,0
-2602,-1511.47819999998,1039,1
-2603,-1511.94499999998,988,0
-2604,-1512.60049999998,948,1
-2605,-1512.87989999998,943,0
-2606,-1513.70009999998,932,1
-2607,-1514.13059999998,898,2
-2608,-1514.54849999998,845,0
-2609,-1515.37099999998,832,0
-2610,-1516.04039999998,788,3
-2611,-1516.64109999998,744,2
-2612,-1517.01399999998,662,3
-2613,-1517.77799999998,623,2
-2614,-1518.47439999998,602,1
-2615,-1518.94299999998,579,10
-2616,-1519.21609999998,570,2
-2617,-1519.71699999998,537,0
-2618,-1520.12189999998,513,10
-2619,-1520.88899999998,479,3
-2620,-1521.15549999998,325,0
-2621,-1521.91869999998,260,0
-2622,-1522.35449999998,212,2
-2623,-1523.22779999998,173,9
-2624,-1523.60159999998,127,15
-2625,-1524.35929999998,83,16
-2626,-1524.62579999998,-71,0
-2625,-1524.27539999998,128,20
-2626,-1525.03309999998,84,9
-2627,-1525.40689999998,38,48
-2628,-1526.10749999998,-94,2
-2627,-1525.70209999998,104,4
-2628,-1526.46609999998,65,72
-2629,-1527.16669999998,-67,1
-2628,-1526.59419999998,331,3
-2629,-1527.06099999998,280,1
-2630,-1527.46599999998,255,0
-2631,-1527.73249999998,101,3
-2632,-1528.49019999998,57,76
-2633,-1528.86309999998,-25,2
-2632,-1528.30959999998,144,1
-2633,-1528.97899999998,100,0
-2634,-1529.39689999998,47,0
-2635,-1529.76979999998,-35,0
-2634,-1528.98319999998,162,1
-2635,-1529.74729999998,128,5
